svm_type c_svc
kernel_type linear
nr_class 31
total_sv 298
rho 0.0638842 0.434277 0.104291 0.14983 -0.173119 0.0317699 -0.0169731 -0.0120657 0.471784 -0.0784431 0.269076 -0.20352 0.652732 -0.0353657 0.292891 0.503734 -0.0435237 -0.0536353 0.271169 0.861697 0.239625 0.476818 0.116594 0.605682 0.0134724 0.594324 0.353559 0.335042 0.537057 -0.0806067 0.369122 0.267969 0.336395 -0.0178452 -0.126097 -0.00165035 0.463771 0.725189 -0.0454651 0.0668175 -0.415965 1.28064 0.206109 1.17802 -0.157723 0.162291 0.216402 0.0198088 0.345702 0.573009 -0.066779 0.00784381 0.097202 0.390035 0.580127 0.421064 0.752234 0.607466 0.0232615 -0.15034 0.0687875 -0.211891 -0.815824 -0.151624 -0.0825602 0.438116 -0.177186 0.153605 -0.394771 -0.0198017 -0.906733 -0.0397488 -0.596484 -0.0248756 -0.218637 0.0149725 -0.505414 0.0482029 -0.536313 -0.258115 -0.405973 0.0477319 0.504922 0.366562 0.0898417 0.276991 -0.0371245 -0.089122 -0.323758 -0.0639591 -0.237314 0.0887058 0.655953 -0.296895 -0.00565548 -0.249659 0.437755 -0.318346 -0.0543845 -0.533265 0.0829346 -0.241523 -0.0928469 -0.0537208 0.587746 -0.0540791 0.404757 -0.103232 -0.138064 0.536177 0.28633 0.784981 0.519227 -0.113124 -1.01939 -0.276091 -0.640298 0.179364 0.0594711 -0.86343 -0.28179 -0.226614 0.0687671 -0.107804 -0.0262876 -0.206797 -0.108046 -0.257566 -0.442965 -0.33683 0.119223 -0.328986 -0.151645 -0.302739 -0.211023 0.697908 0.21437 0.59189 0.59494 -0.377624 0.037005 -0.529775 0.411015 0.31264 -0.222592 0.87262 0.0496467 0.257894 0.190597 0.261013 0.0203132 0.443301 0.232611 0.477732 0.116316 0.304525 0.0409847 0.0720784 0.143966 0.723267 0.86411 0.499807 0.7124 0.877776 0.325879 0.24447 0.328644 0.6905 0.0425485 0.318986 -0.24116 0.741804 0.45417 0.401523 0.294354 0.39972 0.206455 0.217932 0.252184 0.529998 -0.181854 0.067545 -0.372957 0.282951 0.669634 0.499829 0.570094 0.651759 0.134476 0.394949 0.342025 -0.510122 0.971822 0.0481212 0.206409 0.123762 0.199182 0.0955104 0.234029 0.245986 0.268092 0.177092 0.26172 0.139332 0.0616098 -0.461383 0.49049 0.96888 0.512159 0.587569 0.88303 0.215223 0.533726 -0.359754 -0.262658 -0.431573 0.0371094 -0.0350234 -0.395432 -0.156485 -0.118976 -0.141975 -0.281625 -0.468768 -1.11254 -0.337933 -0.602007 -0.261295 -0.228604 0.402704 0.0443459 1.61904 0.441364 -0.417095 -0.358452 -0.121687 -0.668501 -0.263533 -0.672168 -0.72567 -0.488664 -0.153512 -0.407449 -0.250385 -0.455809 -1.12977 -0.455737 -0.575359 -0.309966 -0.277394 0.360457 0.137308 -0.385139 0.236734 -0.277816 1.10529 0.1385 0.218939 0.178423 0.195501 0.093106 0.584242 0.17113 0.454352 0.13449 0.257674 -0.159411 0.119166 -0.10674 0.430939 0.972715 0.513516 0.537076 0.84149 0.245452 -0.131499 0.0171911 -0.0902956 0.0388276 -0.0705395 -0.264602 -0.0519523 -0.977061 0.0323368 0.115892 -0.603686 -0.13211 -0.5826 0.133361 0.95497 0.345497 0.53976 0.802821 -0.172757 1.41351 0.233878 0.338549 0.338749 0.292445 0.152957 0.0931247 0.392862 0.619884 -0.232867 0.20342 0.0895275 0.247619 0.690254 0.402237 0.883878 0.900775 -0.00899145 -0.155803 -0.403106 -0.786809 -0.0959094 -0.13271 -0.0873992 -0.372427 0.140383 -0.698437 -1.06128 -0.550312 -0.261818 0.539327 0.20186 0.44965 0.755778 -0.361735 0.0868711 -0.165702 0.0341288 -0.139521 -0.0421848 -0.0958156 0.389747 -0.477439 -0.225527 -0.355998 0.0777229 0.546182 0.348316 0.498202 0.461496 -0.124559 -0.287097 0.00422221 -0.170562 -0.170432 -0.240873 0.557891 -0.354469 -0.154051 -0.238887 0.00945732 0.501198 0.258113 0.881548 0.537681 -0.231836 -0.0421139 0.253603 0.0100566 0.0583458 0.307742 -0.614664 0.0405262 -0.602027 0.360026 0.641161 0.447906 0.393782 0.545291 0.00750205 -0.0680752 -0.225614 0.0341087 0.0814454 -0.808992 -0.363426 -0.206091 -0.100294 0.879601 0.298781 0.287558 0.69366 -0.165692 -0.00408171 0.0146063 0.269683 -0.110099 -0.115214 -0.0390604 0.225522 0.609618 0.738615 0.681911 0.591056 -0.0432329 0.020708 0.177142 -0.915947 -0.0270468 -0.231974 0.223027 1.00163 0.44862 0.47237 0.822309 0.017478 0.306411 -0.269296 -0.385393 -0.203305 0.106931 0.56086 0.353431 0.77138 0.61783 -0.0731509 -0.350861 -0.545011 -0.256365 -0.203285 0.405321 0.167706 0.75752 0.515508 -0.304132 0.413063 0.900776 0.280004 0.881519 0.418305 0.457519 0.837958 0.237374 -0.0294719 0.0423843 0.717473 0.44515 0.835963 0.81863 0.095937 0.106272 0.88979 0.381709 0.38031 0.814454 0.0262056 0.729094 0.409916 0.720421 0.698246 -0.0271651 -0.452536 -0.13096 0.158335 -1.16756 0.349511 0.363222 -0.344805 0.442135 -0.669675 -1.03219
label 97 98 99 100 101 102 103 104 105 106 107 108 109 110 111 112 113 114 115 116 117 118 119 120 121 122 32 8 10 12 9
probA -2.39441 -2.30164 -2.47131 -2.29686 -2.45597 -2.54019 -2.41835 -2.54657 -2.39286 -2.71607 -2.33894 -2.54642 -2.5478 -2.28005 -2.53544 -2.33885 -2.38247 -2.41584 -2.3277 -2.06282 -2.29836 -2.20032 -2.48632 -2.23605 -2.45643 -2.40746 -2.67045 -2.39634 -2.60247 -2.52135 -2.5359 -2.48249 -2.44888 -2.59199 -2.25542 -2.61015 -2.54768 -2.56925 -2.75768 -2.58058 -2.33258 -2.04102 -2.46347 -2.31068 -2.2857 -2.53486 -2.40807 -2.60998 -2.34595 -2.62559 -2.28201 -2.3615 -2.3561 -2.32725 -2.46149 -2.56697 -2.66764 -2.44364 -2.52209 -2.5244 -2.35344 -2.60656 -2.73672 -2.60256 -2.36755 -2.31852 -2.78334 -2.41213 -2.51373 -2.47031 -2.46726 -2.54058 -2.11098 -2.59187 -2.5485 -2.49724 -2.3164 -2.31153 -2.38147 -2.53046 -2.35271 -2.44172 -2.24089 -2.64059 -2.35088 -2.47199 -2.3553 -1.83536 -2.32151 -2.41666 -2.4223 -2.66269 -2.59884 -2.67339 -2.42463 -2.17903 -2.47396 -2.537 -2.63059 -2.47013 -2.45146 -2.43786 -2.23974 -2.34147 -2.55918 -2.25903 -2.4975 -2.40376 -2.48025 -2.38192 -2.45627 -2.65213 -2.53292 -2.57045 -2.50217 -2.34959 -2.50559 -2.46357 -2.60434 -2.59933 -2.63779 -2.36352 -2.44658 -2.39978 -2.47304 -2.25305 -2.20074 -2.36801 -2.38114 -1.81496 -2.42131 -2.29149 -2.12329 -2.15214 -2.07567 -2.52602 -2.27821 -2.45656 -2.35673 -2.29665 -2.56006 -2.40181 -2.57599 -2.64542 -2.55782 -2.56959 -2.56957 -2.56059 -2.60287 -2.49189 -2.58268 -2.40557 -2.55069 -2.21143 -2.46812 -2.56269 -2.42475 -2.56602 -2.30135 -2.55112 -2.55616 -2.44844 -2.53849 -2.5069 -2.5167 -2.47457 -2.50672 -2.5871 -2.70206 -2.54371 -2.49991 -2.58673 -2.66882 -2.309 -2.18196 -2.42873 -2.50384 -2.46783 -1.59848 -2.33607 -2.32166 -2.4582 -2.17726 -2.47165 -2.48326 -2.70821 -2.49084 -2.64942 -2.57477 -2.57317 -2.60206 -2.62711 -2.47436 -2.55901 -2.55175 -2.55641 -2.54038 -2.60663 -2.06009 -2.5964 -2.48338 -2.56612 -2.60274 -1.85026 -2.60427 -2.07702 -2.53401 -2.60671 -2.48862 -2.55344 -2.50146 -2.51382 -2.50634 -2.85038 -2.44601 -2.23237 -2.21183 -2.43779 -2.57334 -2.37506 -2.57438 -2.53881 -2.61214 -2.4823 -2.62592 -2.53964 -2.44547 -2.50771 -2.48557 -2.26749 -2.3558 -2.67146 -2.51675 -2.39167 -2.79597 -2.61804 -2.31604 -2.2914 -2.39903 -2.554 -2.38336 -2.5411 -2.5765 -2.5883 -2.46111 -2.42048 -2.47619 -2.47697 -2.52895 -2.5879 -2.39625 -2.53503 -2.19944 -2.37241 -2.46342 -2.75866 -2.6465 -2.73982 -2.7514 -2.67462 -2.67 -2.61782 -2.74467 -2.60863 -2.7587 -2.77338 -2.62318 -2.8213 -2.58648 -2.66898 -2.863 -2.74763 -2.79329 -2.67566 -2.72855 -2.5414 -2.58372 -2.40088 -2.52126 -2.58751 -2.47289 -2.53126 -2.33282 -2.50151 -2.54413 -2.43544 -2.57495 -2.33533 -2.5441 -2.50544 -2.47201 -2.3799 -2.36762 -2.35576 -2.51551 -2.48052 -2.18091 -2.46097 -2.60812 -2.42236 -2.55215 -2.19171 -2.31318 -2.12224 -2.3985 -2.34779 -2.40961 -2.3574 -2.45835 -2.28972 -2.41922 -2.35808 -2.46915 -2.29296 -2.30641 -2.65507 -2.42026 -2.5018 -2.18369 -2.32145 -2.22542 -2.50727 -2.47581 -2.61152 -2.4494 -2.52538 -2.22918 -2.30089 -2.4821 -2.48566 -2.32717 -2.4789 -2.39952 -2.42561 -2.19967 -2.23856 -2.25092 -2.52881 -2.27439 -2.49625 -2.33829 -2.60261 -2.49599 -2.56865 -2.40193 -2.35059 -2.51341 -2.59535 -2.45126 -2.33164 -2.65894 -2.39199 -2.42741 -2.40301 -2.49293 -2.37892 -2.51272 -2.67176 -2.37329 -2.53702 -2.09745 -2.28969 -2.59305 -2.32034 -2.30614 -2.12534 -2.47383 -2.18085 -2.51028 -2.30461 -2.44735 -2.4227 -2.45268 -2.48256 -2.31835 -2.31081 -2.55813 -2.48564 -2.44906 -2.55723 -2.52245 -2.29343 -2.43869 -2.47681 -2.49623 -2.35689 -2.50182 -2.47358 -2.54857 -2.43884 -2.5459 -2.38942 -2.49064 -2.19099 -2.29413 -2.6321 -2.62556 -2.47014 -2.47547 -2.5528 -2.55679 -2.32905 -2.64554 -2.13403 -2.36514 -2.60659 -2.55266 -2.61222 -2.4923 -2.4717 -2.52654 -2.14884 -2.15399 -2.18997 -2.44419 -2.29215 -2.47862 -2.47959 -2.47241 -2.4663 -2.39536 -2.46804 -2.47979 -2.57605 -2.29165 -2.48129 -2.24049 -2.21096 -2.47704 -2.32228 -2.44547 -2.36231 -2.49611 -2.51299 -2.47737 -2.44635 -2.4177 -2.31406 -2.49849 -2.56833 -2.47305 -2.46013 -2.51888 -2.62751 -2.29942 -2.41962 -2.43896 -2.44203 -2.45768 -2.4585 -2.64682 -2.47437 -2.55917 -2.59469 -2.63292 -1.89716 -2.19554 -2.12557 -2.37441 -2.35324 -2.26487 -2.35491 -2.15766 -2.36202 -2.44682
probB -0.190594 -0.145584 0.0294674 -0.210328 0.0336244 0.0167997 -0.0977937 -0.0137911 -0.024909 0.0829195 -0.0832805 0.0295006 0.165598 -0.211496 0.0082222 0.147936 0.140473 -0.561767 -0.182245 -0.0978014 -0.341598 -0.196376 -0.0553574 -0.0920204 0.00721215 -0.245557 -0.0633053 -0.279441 -0.11343 -0.06646 0.0223961 0.0597522 -0.0499853 0.0671011 0.183529 -0.00671101 -0.00463942 0.0769147 0.233482 0.0389721 0.0264342 0.31667 -0.0211382 0.000661693 -0.0581594 0.174092 -0.0727132 0.0494488 -0.156249 0.112444 0.220354 -0.043036 0.229608 0.0637172 -0.035129 -0.00265194 0.0672227 -0.00592989 0.0129454 0.249283 -0.236829 -0.0458413 0.0605077 -0.0687548 0.180078 -0.0501134 0.11666 -0.160729 0.0153107 0.108267 0.166245 -0.017345 -0.19946 0.233177 0.00988329 -0.114851 0.131635 0.0755865 0.0700834 0.0138532 -0.0802293 0.0244204 -0.253781 0.0507019 0.0932115 -0.0112074 -0.0698364 -0.49324 0.0840987 -0.155685 0.0574545 -0.319926 -0.186953 0.0824546 0.0326352 -0.187295 0.110099 -0.307295 -0.130542 -0.234245 -0.0173478 -0.0223706 0.183379 -0.113205 -0.144126 0.0406822 -0.157022 0.0486292 0.0365638 0.00129519 -0.0230989 -0.111077 -0.118186 -0.0574142 -0.0254834 0.260572 -0.0491924 0.0151665 0.0462877 0.370093 -0.234688 0.125457 0.450037 -0.0544259 0.0282341 0.219164 0.354238 0.188626 0.126329 0.43648 0.0599669 0.0590104 0.291415 0.0819117 0.409478 0.00581664 0.0663933 0.076969 0.332389 -0.0417331 0.0631131 -0.0532968 -0.00628956 0.0602402 0.111853 -0.000679008 -0.0195169 0.0847508 0.0225424 -0.0699211 0.0450974 0.0607989 -0.00950765 0.0744425 0.0576304 -0.0312255 -0.104874 0.00868654 -0.0820633 0.182068 0.129616 -0.0492736 -0.0179803 0.11609 -0.0576649 -0.114968 0.131404 -0.0546912 0.177219 -0.12346 -0.0586892 0.0740593 -0.0262919 0.154368 -0.0728034 0.105514 -0.187372 -0.150317 -0.188507 0.0251889 0.0316038 -0.007653 0.0933519 0.104731 -0.17724 -0.035778 0.0114576 -0.00720026 -0.0530508 -0.00994135 -0.0251817 0.0333788 0.173873 0.00849496 0.0695141 0.0127853 -0.0805048 -0.0227917 0.0907099 0.0393556 0.0319925 -0.0374732 -0.0656279 -0.370525 -0.0144362 -0.169865 0.137429 0.0380115 -0.0174109 -0.0251249 0.0226206 -0.0660817 0.245561 0.242107 0.0618411 -0.108435 0.181048 -0.0293627 -0.0183646 -0.133178 0.0712855 -0.0238303 0.041245 -0.0578829 0.0696704 -0.057369 -0.0686643 -0.0503804 0.227643 -0.114769 -0.00860647 0.511664 -0.0716253 -0.125915 0.297778 -0.00303595 -0.15681 0.0566602 0.115343 -0.124051 -0.0487811 0.129002 0.00453134 0.0470832 -0.13037 0.0355835 -0.0522786 -0.0169935 -0.0536855 0.102896 -0.243283 -0.0590502 0.144688 -0.00408535 -0.113887 -0.107161 -0.105437 -0.155809 -0.130348 -0.321388 -0.16003 -0.0330303 -0.152643 -0.172986 -0.215277 -0.269476 -0.269225 -0.184556 -0.379394 -0.0415501 -0.226391 -0.261739 -0.278468 -0.26958 -0.274104 -0.049655 0.0156046 0.0237739 -0.0698289 -0.00858608 0.317206 0.0607157 0.00674763 -0.0247745 -0.0199548 -0.0379029 0.0441849 0.0182699 0.262386 0.141448 -0.0895545 0.0231029 0.0596629 -0.0785576 0.209715 0.0360067 0.119674 0.092124 0.0828825 -0.10668 0.0405706 -0.0240861 0.243789 0.292102 0.0334846 0.401758 0.0014305 0.0446059 0.0147683 0.202326 0.111585 0.0900264 -0.101569 -0.129802 0.154453 0.119847 -0.19598 -0.0176564 -0.275942 -0.0272292 0.108168 -0.19005 0.3981 -0.0050121 -0.0496659 -0.122924 -0.0491159 -0.0484493 -0.107096 -0.00983308 -0.0572374 0.245624 -0.174444 -0.098093 0.154336 -0.00446913 0.104291 -0.0495475 0.0859499 0.135496 -0.204534 0.0435522 0.110226 -0.0176416 -0.0734768 -0.135455 0.157439 -0.0827163 0.100438 -0.177005 -0.136028 -0.0161183 0.0425527 0.116408 0.204901 -0.093123 -0.0269437 -0.0487283 0.0446455 -0.186143 0.172124 -0.129423 0.016164 0.0576638 0.0292684 0.282095 0.0492882 0.18163 0.15465 -0.0471171 0.119522 0.00647648 0.113796 0.00317097 -0.243283 -0.405954 -0.215407 -0.212944 0.110869 -0.00754538 0.0147543 -0.0198279 -0.336341 -0.18174 -0.122829 -0.235094 -0.16311 -0.0788156 -0.00947972 -0.0562329 -0.0312883 0.0025767 0.0044231 0.114565 -0.257046 0.050479 0.0374419 0.0710609 -0.0715971 -0.0223056 -0.0471506 0.0329332 -0.0108813 0.0540711 0.223921 -0.0287661 -0.0982155 -0.0835027 -0.133312 -0.0422434 -0.0683371 0.35245 -0.0490434 0.369256 0.188683 0.02004 0.0221424 0.207067 -0.00903207 0.0445397 0.0113502 -0.187741 0.0927239 0.144866 -0.137949 -0.0806377 0.0605653 0.0350679 -0.0635337 -0.0558166 0.107509 0.066932 0.149318 -0.042489 0.0602009 0.167137 0.121908 -0.0289809 0.0981512 -0.0322821 0.0818736 0.225252 -0.0663 -0.0322922 0.117543 0.0810139 -0.0129884 0.0306857 0.104605 -0.0248518 -0.137414 -0.154719 -0.200658 -0.0947845 -0.202192 0.320419 0.0630075 0.347223 -0.241769 0.13295 0.137562 0.0155885 0.0810576 -0.0929091 -0.124306
nr_sv 8 6 11 12 8 9 12 9 15 12 13 10 8 11 10 10 9 12 8 9 11 12 10 9 10 10 8 5 10 6 5
SV
0.0008186510920996038 0.004316489122445301 0.001930125339877713 0.0006540085831495507 0.0005972582774686431 0.001178423673493927 0.0008263203983000318 0.0005789368778299158 0.001279072298052561 0.0007425987350060336 0.001245506050617977 0.0006311853140116092 0.001129038021217125 0.003538490433689915 0.0007346546937106427 0 0 0.0008071663541175454 0.001742229206254454 0 0.001086211806848084 0 7.7958982889883e-05 0 0.0009470621424711736 0.0008718747781954117 0.000787552115829421 0.001116251714012812 0.001700736588092187 0.001024470495176021 1:-0.76599997 2:-5.3762042 3:-0.022571443 4:12.571469 5:-1.882449 6:-1.7289795 7:9.550694 8:0 9:0 10:0 11:0 12:0 13:0 14:0 15:0 16:0 17:0 18:0 19:0 20:0 21:0 22:0 23:0 24:0 25:0 26:0 27:0 28:0 29:0 30:0 31:0 32:0 33:0 34:0 35:0 36:0 37:0 38:0 39:0 40:0 41:0 42:0 43:0 44:0 45:0 46:0 47:0 48:0 49:0 50:0 51:2.0999999 52:4.6831019 53:-6.2981224 54:-2.7504286 55:-4.8748164 56:-4.7796328 57:-0.017469387 58:0 59:0 60:0 61:0 62:0 63:0 64:0 65:0 66:0 67:0 68:0 69:0 70:0 71:0 72:0 73:0 74:0 75:0 76:0 77:0 78:0 79:0 80:0 81:0 82:0 83:0 84:0 85:0 86:0 87:0 88:0 89:0 90:0 91:0 92:0 93:0 94:0 95:0 96:0 97:0 98:0 99:0 100:0 101:8.7049999 102:17.020327 103:-5.7275715 104:17.528102 105:19.795 106:-11.00053 107:19.795 108:0 109:0 110:0 111:0 112:0 113:0 114:0 115:0 116:0 117:0 118:0 119:0 120:0 121:0 122:0 123:0 124:0 125:0 126:0 127:0 128:0 129:0 130:0 131:0 132:0 133:0 134:0 135:0 136:0 137:0 138:0 139:0 140:0 141:0 142:0 143:0 144:0 145:0 146:0 147:0 148:0 149:0 150:0 151:-0.044630963 152:0.98156847 153:-0.31446679 154:-4.3596633 155:4.4377913 156:-1.3324443 157:-2.662213 158:0 159:0 160:0 161:0 162:0 163:0 164:0 165:0 166:0 167:0 168:0 169:0 170:0 171:0 172:0 173:0 174:0 175:0 176:0 177:0 178:0 179:0 180:0 181:0 182:0 183:0 184:0 185:0 186:0 187:0 188:0 189:0 190:0 191:0 192:0 193:0 194:0 195:0 196:0 197:0 198:0 199:0 200:0 201:-0.042499334 202:0.15418686 203:1.2570053 204:0.14306923 205:-0.055626249 206:-0.17677559 207:0.16322452 208:0 209:0 210:0 211:0 212:0 213:0 214:0 215:0 216:0 217:0 218:0 219:0 220:0 221:0 222:0 223:0 224:0 225:0 226:0 227:0 228:0 229:0 230:0 231:0 232:0 233:0 234:0 235:0 236:0 237:0 238:0 239:0 240:0 241:0 242:0 243:0 244:0 245:0 246:0 247:0 248:0 249:0 250:0 251:-0.23261391 252:-0.16135935 253:3.2726281 254:-1.8147958 255:-2.2098702 256:0.99446703 257:-2.2861846 258:0 259:0 260:0 261:0 262:0 263:0 264:0 265:0 266:0 267:0 268:0 269:0 270:0 271:0 272:0 273:0 274:0 275:0 276:0 277:0 278:0 279:0 280:0 281:0 282:0 283:0 284:0 285:0 286:0 287:0 288:0 289:0 290:0 291:0 292:0 293:0 294:0 295:0 296:0 297:0 298:0 299:0 300:0 
0.0001747762857723511 0.004744167599276431 0.0004091083696582429 0.0008182841331403404 0.0004562614072350341 0 0.0003313784743852144 0.001555533634842315 0.001759397441780446 4.622780448648716e-05 0.0004761080342630856 0 0 0.005065687340782637 0 0.003706626040042392 0.0006344105108119163 0.003057145854920706 0.0004181247892929618 0.0006146672363885547 0.002207810543207532 0 0.0002499742147305663 0 0.001664761936561107 0.001042529141520922 0.001318786871088123 0.001852181299616265 0.001709651959507133 0.0007178867764688938 1:-0.41800001 2:-7.7173467 3:11.48749 4:2.8254286 5:-3.5027756 6:12.701673 7:0 8:0 9:0 10:0 11:0 12:0 13:0 14:0 15:0 16:0 17:0 18:0 19:0 20:0 21:0 22:0 23:0 24:0 25:0 26:0 27:0 28:0 29:0 30:0 31:0 32:0 33:0 34:0 35:0 36:0 37:0 38:0 39:0 40:0 41:0 42:0 43:0 44:0 45:0 46:0 47:0 48:0 49:0 50:0 51:4.408 52:-2.9450612 53:-2.8367143 54:1.2947959 55:-6.0601631 56:2.5840001 57:0 58:0 59:0 60:0 61:0 62:0 63:0 64:0 65:0 66:0 67:0 68:0 69:0 70:0 71:0 72:0 73:0 74:0 75:0 76:0 77:0 78:0 79:0 80:0 81:0 82:0 83:0 84:0 85:0 86:0 87:0 88:0 89:0 90:0 91:0 92:0 93:0 94:0 95:0 96:0 97:0 98:0 99:0 100:0 101:8.6040001 102:1.2601429 103:1.7926734 104:19.795 105:-10.557979 106:19.128347 107:0 108:0 109:0 110:0 111:0 112:0 113:0 114:0 115:0 116:0 117:0 118:0 119:0 120:0 121:0 122:0 123:0 124:0 125:0 126:0 127:0 128:0 129:0 130:0 131:0 132:0 133:0 134:0 135:0 136:0 137:0 138:0 139:0 140:0 141:0 142:0 143:0 144:0 145:0 146:0 147:0 148:0 149:0 150:0 151:0.46229684 152:1.4255915 153:-4.3508213 154:2.2648357 155:0.47607084 156:-3.7364693 157:0 158:0 159:0 160:0 161:0 162:0 163:0 164:0 165:0 166:0 167:0 168:0 169:0 170:0 171:0 172:0 173:0 174:0 175:0 176:0 177:0 178:0 179:0 180:0 181:0 182:0 183:0 184:0 185:0 186:0 187:0 188:0 189:0 190:0 191:0 192:0 193:0 194:0 195:0 196:0 197:0 198:0 199:0 200:0 201:-0.92699176 202:1.5260091 203:-0.16752041 204:-0.18536191 205:0.56689071 206:0.26254643 207:0 208:0 209:0 210:0 211:0 212:0 213:0 214:0 215:0 216:0 217:0 218:0 219:0 220:0 221:0 222:0 223:0 224:0 225:0 226:0 227:0 228:0 229:0 230:0 231:0 232:0 233:0 234:0 235:0 236:0 237:0 238:0 239:0 240:0 241:0 242:0 243:0 244:0 245:0 246:0 247:0 248:0 249:0 250:0 251:-0.54529709 252:2.0035536 253:1.407546 254:-2.8090561 255:0.23155082 256:-1.3635976 257:0 258:0 259:0 260:0 261:0 262:0 263:0 264:0 265:0 266:0 267:0 268:0 269:0 270:0 271:0 272:0 273:0 274:0 275:0 276:0 277:0 278:0 279:0 280:0 281:0 282:0 283:0 284:0 285:0 286:0 287:0 288:0 289:0 290:0 291:0 292:0 293:0 294:0 295:0 296:0 297:0 298:0 299:0 300:0 
0 0 0 0 0 0 0 0 0 0 0 0 0 0 0 0.0001772785893068055 0.001103474966271232 0 0 0 0 0.01 0 0.005941175301724117 0 0 0 0 0 0 1:0.61699998 2:-5.8934286 3:1.1503265 4:14.12202 5:-2.8625918 6:-1.1251836 7:6.970041 8:0 9:0 10:0 11:0 12:0 13:0 14:0 15:0 16:0 17:0 18:0 19:0 20:0 21:0 22:0 23:0 24:0 25:0 26:0 27:0 28:0 29:0 30:0 31:0 32:0 33:0 34:0 35:0 36:0 37:0 38:0 39:0 40:0 41:0 42:0 43:0 44:0 45:0 46:0 47:0 48:0 49:0 50:0 51:2.944 52:3.856551 53:-4.8607144 54:0.59981631 55:-4.5430613 56:-4.0285712 57:1.3141224 58:0 59:0 60:0 61:0 62:0 63:0 64:0 65:0 66:0 67:0 68:0 69:0 70:0 71:0 72:0 73:0 74:0 75:0 76:0 77:0 78:0 79:0 80:0 81:0 82:0 83:0 84:0 85:0 86:0 87:0 88:0 89:0 90:0 91:0 92:0 93:0 94:0 95:0 96:0 97:0 98:0 99:0 100:0 101:7.2090001 102:19.358408 103:-7.4868367 104:19.544919 105:15.716898 106:-7.3025509 107:19.795 108:0 109:0 110:0 111:0 112:0 113:0 114:0 115:0 116:0 117:0 118:0 119:0 120:0 121:0 122:0 123:0 124:0 125:0 126:0 127:0 128:0 129:0 130:0 131:0 132:0 133:0 134:0 135:0 136:0 137:0 138:0 139:0 140:0 141:0 142:0 143:0 144:0 145:0 146:0 147:0 148:0 149:0 150:0 151:0.23261391 152:2.531398 153:-1.3914365 154:-3.5840524 155:4.1502226 156:-2.0510502 157:-1.5884028 158:0 159:0 160:0 161:0 162:0 163:0 164:0 165:0 166:0 167:0 168:0 169:0 170:0 171:0 172:0 173:0 174:0 175:0 176:0 177:0 178:0 179:0 180:0 181:0 182:0 183:0 184:0 185:0 186:0 187:0 188:0 189:0 190:0 191:0 192:0 193:0 194:0 195:0 196:0 197:0 198:0 199:0 200:0 201:0.083133496 202:0.66296353 203:0.33368407 204:-0.034957063 205:0.27518394 206:-0.054658313 207:0.53065849 208:0 209:0 210:0 211:0 212:0 213:0 214:0 215:0 216:0 217:0 218:0 219:0 220:0 221:0 222:0 223:0 224:0 225:0 226:0 227:0 228:0 229:0 230:0 231:0 232:0 233:0 234:0 235:0 236:0 237:0 238:0 239:0 240:0 241:0 242:0 243:0 244:0 245:0 246:0 247:0 248:0 249:0 250:0 251:0.17905675 252:-0.33358619 253:2.681202 254:-2.1058092 255:-1.7533293 256:0.77404199 257:-2.7225866 258:0 259:0 260:0 261:0 262:0 263:0 264:0 265:0 266:0 267:0 268:0 269:0 270:0 271:0 272:0 273:0 274:0 275:0 276:0 277:0 278:0 279:0 280:0 281:0 282:0 283:0 284:0 285:0 286:0 287:0 288:0 289:0 290:0 291:0 292:0 293:0 294:0 295:0 296:0 297:0 298:0 299:0 300:0 
0.00170752820644362 0 0.002908292565939614 0 0 0.002337091331634916 0 0.0004357999636818803 0.0002221216973776222 0 0 0.001884551154716852 0.002424451483659511 0 0.001954213701110245 0.001857454620974852 0 0 0 0.01 0.0001114030650884616 0 0.0007699631469999695 0 3.531804540687625e-05 0 7.166602863116717e-05 0.0002780549255436454 0 0 1:0.41499999 2:-5.9851021 3:11.147571 4:1.1574082 5:-2.1554898 6:7.8592039 7:-3.8048368 8:0 9:0 10:0 11:0 12:0 13:0 14:0 15:0 16:0 17:0 18:0 19:0 20:0 21:0 22:0 23:0 24:0 25:0 26:0 27:0 28:0 29:0 30:0 31:0 32:0 33:0 34:0 35:0 36:0 37:0 38:0 39:0 40:0 41:0 42:0 43:0 44:0 45:0 46:0 47:0 48:0 49:0 50:0 51:6.6420002 52:-3.1961224 53:-1.2396531 54:-1.0347551 55:-3.3134897 56:-2.3169797 57:-2.9929183 58:0 59:0 60:0 61:0 62:0 63:0 64:0 65:0 66:0 67:0 68:0 69:0 70:0 71:0 72:0 73:0 74:0 75:0 76:0 77:0 78:0 79:0 80:0 81:0 82:0 83:0 84:0 85:0 86:0 87:0 88:0 89:0 90:0 91:0 92:0 93:0 94:0 95:0 96:0 97:0 98:0 99:0 100:0 101:13.519 102:1.1588571 103:1.6398367 104:19.795 105:-6.3817756 106:10.735143 107:16.757306 108:0 109:0 110:0 111:0 112:0 113:0 114:0 115:0 116:0 117:0 118:0 119:0 120:0 121:0 122:0 123:0 124:0 125:0 126:0 127:0 128:0 129:0 130:0 131:0 132:0 133:0 134:0 135:0 136:0 137:0 138:0 139:0 140:0 141:0 142:0 143:0 144:0 145:0 146:0 147:0 148:0 149:0 150:0 151:-0.12883027 152:1.9310485 153:-4.3022182 154:1.6776021 155:1.3480753 156:-4.301321 157:0.76228271 158:0 159:0 160:0 161:0 162:0 163:0 164:0 165:0 166:0 167:0 168:0 169:0 170:0 171:0 172:0 173:0 174:0 175:0 176:0 177:0 178:0 179:0 180:0 181:0 182:0 183:0 184:0 185:0 186:0 187:0 188:0 189:0 190:0 191:0 192:0 193:0 194:0 195:0 196:0 197:0 198:0 199:0 200:0 201:0.25419664 202:0.97501047 203:0.023727958 204:0.83123164 205:0.25457456 206:-0.43711425 207:-0.13631543 208:0 209:0 210:0 211:0 212:0 213:0 214:0 215:0 216:0 217:0 218:0 219:0 220:0 221:0 222:0 223:0 224:0 225:0 226:0 227:0 228:0 229:0 230:0 231:0 232:0 233:0 234:0 235:0 236:0 237:0 238:0 239:0 240:0 241:0 242:0 243:0 244:0 245:0 246:0 247:0 248:0 249:0 250:0 251:-0.58193445 252:1.912451 253:1.6135011 254:-2.9570467 255:0.17333889 256:-0.47011641 257:-1.4144303 258:0 259:0 260:0 261:0 262:0 263:0 264:0 265:0 266:0 267:0 268:0 269:0 270:0 271:0 272:0 273:0 274:0 275:0 276:0 277:0 278:0 279:0 280:0 281:0 282:0 283:0 284:0 285:0 286:0 287:0 288:0 289:0 290:0 291:0 292:0 293:0 294:0 295:0 296:0 297:0 298:0 299:0 300:0 
0.0007742572084006602 0 0 0 0 0.008299117389217122 0 0 0 0 0 0.0005853978612599093 0 0 0 0 0 0 0 0.0005776475832811318 0 0 0.002311625889133294 0 0 0 0 0 0 0 1:-1.072 2:-7.9089389 3:6.8138166 4:6.637694 5:-4.4652857 6:3.5677552 7:2.6819797 8:0 9:0 10:0 11:0 12:0 13:0 14:0 15:0 16:0 17:0 18:0 19:0 20:0 21:0 22:0 23:0 24:0 25:0 26:0 27:0 28:0 29:0 30:0 31:0 32:0 33:0 34:0 35:0 36:0 37:0 38:0 39:0 40:0 41:0 42:0 43:0 44:0 45:0 46:0 47:0 48:0 49:0 50:0 51:3.546 52:-2.5745102 53:-2.7342041 54:1.6625306 55:-4.9413265 56:-1.5865306 57:-0.7095102 58:0 59:0 60:0 61:0 62:0 63:0 64:0 65:0 66:0 67:0 68:0 69:0 70:0 71:0 72:0 73:0 74:0 75:0 76:0 77:0 78:0 79:0 80:0 81:0 82:0 83:0 84:0 85:0 86:0 87:0 88:0 89:0 90:0 91:0 92:0 93:0 94:0 95:0 96:0 97:0 98:0 99:0 100:0 101:11.221 102:5.9855103 103:-1.3759388 104:19.795 105:-0.90434696 106:0.76112245 107:19.795 108:0 109:0 110:0 111:0 112:0 113:0 114:0 115:0 116:0 117:0 118:0 119:0 120:0 121:0 122:0 123:0 124:0 125:0 126:0 127:0 128:0 129:0 130:0 131:0 132:0 133:0 134:0 135:0 136:0 137:0 138:0 139:0 140:0 141:0 142:0 143:0 144:0 145:0 146:0 147:0 148:0 149:0 150:0 151:0.38782308 152:2.5872608 153:-3.5427549 154:0.41370169 155:3.00326 156:-3.786916 157:0.077051288 158:0 159:0 160:0 161:0 162:0 163:0 164:0 165:0 166:0 167:0 168:0 169:0 170:0 171:0 172:0 173:0 174:0 175:0 176:0 177:0 178:0 179:0 180:0 181:0 182:0 183:0 184:0 185:0 186:0 187:0 188:0 189:0 190:0 191:0 192:0 193:0 194:0 195:0 196:0 197:0 198:0 199:0 200:0 201:-0.45057288 202:1.4880911 203:-0.026030875 204:-0.8524881 205:0.44993392 206:-0.52389108 207:-0.1827708 208:0 209:0 210:0 211:0 212:0 213:0 214:0 215:0 216:0 217:0 218:0 219:0 220:0 221:0 222:0 223:0 224:0 225:0 226:0 227:0 228:0 229:0 230:0 231:0 232:0 233:0 234:0 235:0 236:0 237:0 238:0 239:0 240:0 241:0 242:0 243:0 244:0 245:0 246:0 247:0 248:0 249:0 250:0 251:0.032374099 252:1.0811705 253:2.370713 254:-2.8786114 255:-0.75310633 256:1.2375596 257:-2.8863141 258:0 259:0 260:0 261:0 262:0 263:0 264:0 265:0 266:0 267:0 268:0 269:0 270:0 271:0 272:0 273:0 274:0 275:0 276:0 277:0 278:0 279:0 280:0 281:0 282:0 283:0 284:0 285:0 286:0 287:0 288:0 289:0 290:0 291:0 292:0 293:0 294:0 295:0 296:0 297:0 298:0 299:0 300:0 
0 0 0 0 0 0 0 0 0 0 0 0 0 0 0 0 0.007192185453572208 0 0 0 0 4.775868781455377e-05 0.001233831990729091 0.00192616953342114 0 0 0 0 0 0 1:0.99299997 2:-7.2197756 3:4.6277959 4:6.4962654 5:-6.4993063 6:3.9020613 7:-2.2738777 8:0 9:0 10:0 11:0 12:0 13:0 14:0 15:0 16:0 17:0 18:0 19:0 20:0 21:0 22:0 23:0 24:0 25:0 26:0 27:0 28:0 29:0 30:0 31:0 32:0 33:0 34:0 35:0 36:0 37:0 38:0 39:0 40:0 41:0 42:0 43:0 44:0 45:0 46:0 47:0 48:0 49:0 50:0 51:3.434 52:-0.12985715 53:-2.2409592 54:-0.4110204 55:-5.2295307 56:-0.93695919 57:-2.1492042 58:0 59:0 60:0 61:0 62:0 63:0 64:0 65:0 66:0 67:0 68:0 69:0 70:0 71:0 72:0 73:0 74:0 75:0 76:0 77:0 78:0 79:0 80:0 81:0 82:0 83:0 84:0 85:0 86:0 87:0 88:0 89:0 90:0 91:0 92:0 93:0 94:0 95:0 96:0 97:0 98:0 99:0 100:0 101:7.7309999 102:11.718021 103:-4.0200612 104:19.795 105:2.2217143 106:2.0278775 107:19.614143 108:0 109:0 110:0 111:0 112:0 113:0 114:0 115:0 116:0 117:0 118:0 119:0 120:0 121:0 122:0 123:0 124:0 125:0 126:0 127:0 128:0 129:0 130:0 131:0 132:0 133:0 134:0 135:0 136:0 137:0 138:0 139:0 140:0 141:0 142:0 143:0 144:0 145:0 146:0 147:0 148:0 149:0 150:0 151:0.012789768 152:2.6554131 153:-2.631794 154:-0.66781946 155:2.7957281 156:-3.5066696 157:0.10971903 158:0 159:0 160:0 161:0 162:0 163:0 164:0 165:0 166:0 167:0 168:0 169:0 170:0 171:0 172:0 173:0 174:0 175:0 176:0 177:0 178:0 179:0 180:0 181:0 182:0 183:0 184:0 185:0 186:0 187:0 188:0 189:0 190:0 191:0 192:0 193:0 194:0 195:0 196:0 197:0 198:0 199:0 200:0 201:-0.20503597 202:0.97856408 203:0.30454548 204:-0.72435929 205:0.48923857 206:-0.51461414 207:-0.039565628 208:0 209:0 210:0 211:0 212:0 213:0 214:0 215:0 216:0 217:0 218:0 219:0 220:0 221:0 222:0 223:0 224:0 225:0 226:0 227:0 228:0 229:0 230:0 231:0 232:0 233:0 234:0 235:0 236:0 237:0 238:0 239:0 240:0 241:0 242:0 243:0 244:0 245:0 246:0 247:0 248:0 249:0 250:0 251:-0.127498 252:0.49542408 253:2.5053617 254:-2.7842624 255:-0.96605166 256:0.89044955 257:-2.1366227 258:0 259:0 260:0 261:0 262:0 263:0 264:0 265:0 266:0 267:0 268:0 269:0 270:0 271:0 272:0 273:0 274:0 275:0 276:0 277:0 278:0 279:0 280:0 281:0 282:0 283:0 284:0 285:0 286:0 287:0 288:0 289:0 290:0 291:0 292:0 293:0 294:0 295:0 296:0 297:0 298:0 299:0 300:0 
0 0 0 0 0 0.005996479311945501 0 0 0 0.0006440682428282693 0 0 0 0 0 0.009019663965067854 0 0 0 0 0 0.0004890743839478048 0 0 0 0 0 0 0 0 1:1.099 2:-6.0715509 3:8.2209592 4:3.1895101 5:-3.2151429 6:5.0923878 7:-2.4586531 8:0 9:0 10:0 11:0 12:0 13:0 14:0 15:0 16:0 17:0 18:0 19:0 20:0 21:0 22:0 23:0 24:0 25:0 26:0 27:0 28:0 29:0 30:0 31:0 32:0 33:0 34:0 35:0 36:0 37:0 38:0 39:0 40:0 41:0 42:0 43:0 44:0 45:0 46:0 47:0 48:0 49:0 50:0 51:3.5179999 52:0.033489798 53:-1.0758571 54:0.05261224 55:-4.4127552 56:-1.5784489 57:-2.7708164 58:0 59:0 60:0 61:0 62:0 63:0 64:0 65:0 66:0 67:0 68:0 69:0 70:0 71:0 72:0 73:0 74:0 75:0 76:0 77:0 78:0 79:0 80:0 81:0 82:0 83:0 84:0 85:0 86:0 87:0 88:0 89:0 90:0 91:0 92:0 93:0 94:0 95:0 96:0 97:0 98:0 99:0 100:0 101:8.257 102:8.4700412 103:-3.0251429 104:19.795 105:0.17916325 106:3.3749796 107:19.724286 108:0 109:0 110:0 111:0 112:0 113:0 114:0 115:0 116:0 117:0 118:0 119:0 120:0 121:0 122:0 123:0 124:0 125:0 126:0 127:0 128:0 129:0 130:0 131:0 132:0 133:0 134:0 135:0 136:0 137:0 138:0 139:0 140:0 141:0 142:0 143:0 144:0 145:0 146:0 147:0 148:0 149:0 150:0 151:0.31454837 152:2.3588747 153:-3.1149583 154:-0.34084026 155:2.4247704 156:-3.9429653 157:-0.46063286 158:0 159:0 160:0 161:0 162:0 163:0 164:0 165:0 166:0 167:0 168:0 169:0 170:0 171:0 172:0 173:0 174:0 175:0 176:0 177:0 178:0 179:0 180:0 181:0 182:0 183:0 184:0 185:0 186:0 187:0 188:0 189:0 190:0 191:0 192:0 193:0 194:0 195:0 196:0 197:0 198:0 199:0 200:0 201:0.056354918 202:0.98319167 203:0.25654578 204:-0.53025063 205:0.68670233 206:-0.4610842 207:0.42102643 208:0 209:0 210:0 211:0 212:0 213:0 214:0 215:0 216:0 217:0 218:0 219:0 220:0 221:0 222:0 223:0 224:0 225:0 226:0 227:0 228:0 229:0 230:0 231:0 232:0 233:0 234:0 235:0 236:0 237:0 238:0 239:0 240:0 241:0 242:0 243:0 244:0 245:0 246:0 247:0 248:0 249:0 250:0 251:0.081268318 252:1.1060457 253:1.948289 254:-2.8557426 255:-0.64745211 256:0.76605108 257:-1.9845728 258:0 259:0 260:0 261:0 262:0 263:0 264:0 265:0 266:0 267:0 268:0 269:0 270:0 271:0 272:0 273:0 274:0 275:0 276:0 277:0 278:0 279:0 280:0 281:0 282:0 283:0 284:0 285:0 286:0 287:0 288:0 289:0 290:0 291:0 292:0 293:0 294:0 295:0 296:0 297:0 298:0 299:0 300:0 
0 0 0 0 0 0 0 0 0 0 0 0 0.002156067146167306 0 0.0004519899394783516 0 0 0 0 0 0 0 0 0 0 0 0 0 0 0 1:-0.36300001 2:-6.5138571 3:4.6407958 4:6.2843471 5:-4.2925103 6:2.4358572 7:-0.073530613 8:0 9:0 10:0 11:0 12:0 13:0 14:0 15:0 16:0 17:0 18:0 19:0 20:0 21:0 22:0 23:0 24:0 25:0 26:0 27:0 28:0 29:0 30:0 31:0 32:0 33:0 34:0 35:0 36:0 37:0 38:0 39:0 40:0 41:0 42:0 43:0 44:0 45:0 46:0 47:0 48:0 49:0 50:0 51:3.2219999 52:0.69718366 53:-3.2635306 54:-0.47651022 55:-6.5636125 56:-1.8366327 57:-2.3289796 58:0 59:0 60:0 61:0 62:0 63:0 64:0 65:0 66:0 67:0 68:0 69:0 70:0 71:0 72:0 73:0 74:0 75:0 76:0 77:0 78:0 79:0 80:0 81:0 82:0 83:0 84:0 85:0 86:0 87:0 88:0 89:0 90:0 91:0 92:0 93:0 94:0 95:0 96:0 97:0 98:0 99:0 100:0 101:8.9169998 102:7.8233674 103:-4.6024082 104:19.795 105:4.1697959 106:-0.147 107:17.665041 108:0 109:0 110:0 111:0 112:0 113:0 114:0 115:0 116:0 117:0 118:0 119:0 120:0 121:0 122:0 123:0 124:0 125:0 126:0 127:0 128:0 129:0 130:0 131:0 132:0 133:0 134:0 135:0 136:0 137:0 138:0 139:0 140:0 141:0 142:0 143:0 144:0 145:0 146:0 147:0 148:0 149:0 150:0 151:0.12509993 152:2.3928966 153:-2.7759263 154:-1.6632762 155:3.3973256 156:-3.906676 157:-0.22354362 158:0 159:0 160:0 161:0 162:0 163:0 164:0 165:0 166:0 167:0 168:0 169:0 170:0 171:0 172:0 173:0 174:0 175:0 176:0 177:0 178:0 179:0 180:0 181:0 182:0 183:0 184:0 185:0 186:0 187:0 188:0 189:0 190:0 191:0 192:0 193:0 194:0 195:0 196:0 197:0 198:0 199:0 200:0 201:-0.090194508 202:0.80871903 203:0.24974307 204:-0.20111801 205:0.91378057 206:0.016136749 207:0.044038239 208:0 209:0 210:0 211:0 212:0 213:0 214:0 215:0 216:0 217:0 218:0 219:0 220:0 221:0 222:0 223:0 224:0 225:0 226:0 227:0 228:0 229:0 230:0 231:0 232:0 233:0 234:0 235:0 236:0 237:0 238:0 239:0 240:0 241:0 242:0 243:0 244:0 245:0 246:0 247:0 248:0 249:0 250:0 251:0.2071676 252:0.82594874 253:2.5167077 254:-2.8749599 255:-0.76310652 256:0.78122805 257:-2.1221663 258:0 259:0 260:0 261:0 262:0 263:0 264:0 265:0 266:0 267:0 268:0 269:0 270:0 271:0 272:0 273:0 274:0 275:0 276:0 277:0 278:0 279:0 280:0 281:0 282:0 283:0 284:0 285:0 286:0 287:0 288:0 289:0 290:0 291:0 292:0 293:0 294:0 295:0 296:0 297:0 298:0 299:0 300:0 
-0.0002825460414526947 0 0 0 0 0.001545418350672063 0.0005602021632338606 0 0 0.000352738210867677 0.0001487504885034601 0 0.0001830471353475959 0 0 4.349648244745111e-05 0.0006438610265098259 0 0.000401802760435063 0 0 0.001577380433750076 0.0004498453724116386 0.002077745341604592 0 0 0 0 0 0 1:-1.286 2:-0.43699999 3:1.0115714 4:8.233286 5:5.390347 6:-12.323755 7:5.9676734 8:0.55928571 9:0 10:0 11:0 12:0 13:0 14:0 15:0 16:0 17:0 18:0 19:0 20:0 21:0 22:0 23:0 24:0 25:0 26:0 27:0 28:0 29:0 30:0 31:0 32:0 33:0 34:0 35:0 36:0 37:0 38:0 39:0 40:0 41:0 42:0 43:0 44:0 45:0 46:0 47:0 48:0 49:0 50:0 51:6.0409999 52:2.9726328 53:-4.8725919 54:1.8714693 55:-3.1497551 56:-5.9683672 57:-1.0566122 58:-0.34071428 59:0 60:0 61:0 62:0 63:0 64:0 65:0 66:0 67:0 68:0 69:0 70:0 71:0 72:0 73:0 74:0 75:0 76:0 77:0 78:0 79:0 80:0 81:0 82:0 83:0 84:0 85:0 86:0 87:0 88:0 89:0 90:0 91:0 92:0 93:0 94:0 95:0 96:0 97:0 98:0 99:0 100:0 101:9.3780003 102:-0.10020408 103:3.7675714 104:19.795 105:-1.5315306 106:3.589347 107:19.795 108:5.9792859 109:0 110:0 111:0 112:0 113:0 114:0 115:0 116:0 117:0 118:0 119:0 120:0 121:0 122:0 123:0 124:0 125:0 126:0 127:0 128:0 129:0 130:0 131:0 132:0 133:0 134:0 135:0 136:0 137:0 138:0 139:0 140:0 141:0 142:0 143:0 144:0 145:0 146:0 147:0 148:0 149:0 150:0 151:0.6993072 152:0.37538133 153:-4.9357793 154:2.000851 155:2.3727169 156:-3.114246 157:0.23068348 158:0.098111991 159:0 160:0 161:0 162:0 163:0 164:0 165:0 166:0 167:0 168:0 169:0 170:0 171:0 172:0 173:0 174:0 175:0 176:0 177:0 178:0 179:0 180:0 181:0 182:0 183:0 184:0 185:0 186:0 187:0 188:0 189:0 190:0 191:0 192:0 193:0 194:0 195:0 196:0 197:0 198:0 199:0 200:0 201:-0.17812417 202:-0.069995702 203:-0.3628145 204:0.5346607 205:-0.18225148 206:-1.6871646 207:0.48677248 208:0.094305511 209:0 210:0 211:0 212:0 213:0 214:0 215:0 216:0 217:0 218:0 219:0 220:0 221:0 222:0 223:0 224:0 225:0 226:0 227:0 228:0 229:0 230:0 231:0 232:0 233:0 234:0 235:0 236:0 237:0 238:0 239:0 240:0 241:0 242:0 243:0 244:0 245:0 246:0 247:0 248:0 249:0 250:0 251:0.13375966 252:0.0022295085 253:1.0390327 254:-0.36477485 255:-2.7062758 256:-0.11139388 257:3.6845679 258:0.3817898 259:0 260:0 261:0 262:0 263:0 264:0 265:0 266:0 267:0 268:0 269:0 270:0 271:0 272:0 273:0 274:0 275:0 276:0 277:0 278:0 279:0 280:0 281:0 282:0 283:0 284:0 285:0 286:0 287:0 288:0 289:0 290:0 291:0 292:0 293:0 294:0 295:0 296:0 297:0 298:0 299:0 300:0 
-0 0 0 0 0 0 0 0 0 0 0 0 0 0 0 0 0 0.0005728784720570177 0 0.0009921806590683837 0 0 0 0 0 0 0 0 0 0 1:-0.109 2:-2.7343469 3:4.6841021 4:6.6793061 5:-4.9321836 6:-9.6294284 7:12.021388 8:0 9:0 10:0 11:0 12:0 13:0 14:0 15:0 16:0 17:0 18:0 19:0 20:0 21:0 22:0 23:0 24:0 25:0 26:0 27:0 28:0 29:0 30:0 31:0 32:0 33:0 34:0 35:0 36:0 37:0 38:0 39:0 40:0 41:0 42:0 43:0 44:0 45:0 46:0 47:0 48:0 49:0 50:0 51:4.9679999 52:-1.3660816 53:-0.30440819 54:-1.5442653 55:-4.2967346 56:-5.6369998 57:1.9700817 58:0 59:0 60:0 61:0 62:0 63:0 64:0 65:0 66:0 67:0 68:0 69:0 70:0 71:0 72:0 73:0 74:0 75:0 76:0 77:0 78:0 79:0 80:0 81:0 82:0 83:0 84:0 85:0 86:0 87:0 88:0 89:0 90:0 91:0 92:0 93:0 94:0 95:0 96:0 97:0 98:0 99:0 100:0 101:7.7859998 102:-6.8504899 103:19.795 104:11.689306 105:-3.9670613 106:19.795 107:10.774817 108:0 109:0 110:0 111:0 112:0 113:0 114:0 115:0 116:0 117:0 118:0 119:0 120:0 121:0 122:0 123:0 124:0 125:0 126:0 127:0 128:0 129:0 130:0 131:0 132:0 133:0 134:0 135:0 136:0 137:0 138:0 139:0 140:0 141:0 142:0 143:0 144:0 145:0 146:0 147:0 148:0 149:0 150:0 151:1.6485479 152:-1.4564593 153:-4.281375 154:3.9377206 155:-1.3966677 156:-2.1927056 157:0.74679303 158:0 159:0 160:0 161:0 162:0 163:0 164:0 165:0 166:0 167:0 168:0 169:0 170:0 171:0 172:0 173:0 174:0 175:0 176:0 177:0 178:0 179:0 180:0 181:0 182:0 183:0 184:0 185:0 186:0 187:0 188:0 189:0 190:0 191:0 192:0 193:0 194:0 195:0 196:0 197:0 198:0 199:0 200:0 201:-0.16466826 202:-0.73699678 203:0.30116314 204:0.0242228 205:-1.3565283 206:0.029606245 207:0.75980032 208:0 209:0 210:0 211:0 212:0 213:0 214:0 215:0 216:0 217:0 218:0 219:0 220:0 221:0 222:0 223:0 224:0 225:0 226:0 227:0 228:0 229:0 230:0 231:0 232:0 233:0 234:0 235:0 236:0 237:0 238:0 239:0 240:0 241:0 242:0 243:0 244:0 245:0 246:0 247:0 248:0 249:0 250:0 251:-0.47934985 252:0.19043269 253:0.17275703 254:-1.3470938 255:-2.1550842 256:3.4207247 257:0.6404183 258:0 259:0 260:0 261:0 262:0 263:0 264:0 265:0 266:0 267:0 268:0 269:0 270:0 271:0 272:0 273:0 274:0 275:0 276:0 277:0 278:0 279:0 280:0 281:0 282:0 283:0 284:0 285:0 286:0 287:0 288:0 289:0 290:0 291:0 292:0 293:0 294:0 295:0 296:0 297:0 298:0 299:0 300:0 
-0 2.941574968696843e-05 0 0 0 0 0 0 0 0 0.000229978445418192 0 0 0 0.002141052232534293 0 0 0 8.482388347693825e-05 0 0 0 0 0 0 0.0004197456098636737 0.001009778384546656 0 0 0 1:0.30000001 2:-1.1047347 3:6.9435919 4:5.3056735 5:-0.64722447 6:-11.212428 7:9.8384693 8:0 9:0 10:0 11:0 12:0 13:0 14:0 15:0 16:0 17:0 18:0 19:0 20:0 21:0 22:0 23:0 24:0 25:0 26:0 27:0 28:0 29:0 30:0 31:0 32:0 33:0 34:0 35:0 36:0 37:0 38:0 39:0 40:0 41:0 42:0 43:0 44:0 45:0 46:0 47:0 48:0 49:0 50:0 51:6.1589999 52:-0.17032653 53:1.4422857 54:-1.4805714 55:-1.5384694 56:-5.4023878 57:1.3980613 58:0 59:0 60:0 61:0 62:0 63:0 64:0 65:0 66:0 67:0 68:0 69:0 70:0 71:0 72:0 73:0 74:0 75:0 76:0 77:0 78:0 79:0 80:0 81:0 82:0 83:0 84:0 85:0 86:0 87:0 88:0 89:0 90:0 91:0 92:0 93:0 94:0 95:0 96:0 97:0 98:0 99:0 100:0 101:3.036 102:-4.5289797 103:19.795 104:12.098429 105:-3.9881427 106:15.98649 107:10.925265 108:0 109:0 110:0 111:0 112:0 113:0 114:0 115:0 116:0 117:0 118:0 119:0 120:0 121:0 122:0 123:0 124:0 125:0 126:0 127:0 128:0 129:0 130:0 131:0 132:0 133:0 134:0 135:0 136:0 137:0 138:0 139:0 140:0 141:0 142:0 143:0 144:0 145:0 146:0 147:0 148:0 149:0 150:0 151:0.73967493 152:-2.5190597 153:-2.3710936 154:3.4725879 155:-0.49277043 156:-2.7317738 157:0.52960898 158:0 159:0 160:0 161:0 162:0 163:0 164:0 165:0 166:0 167:0 168:0 169:0 170:0 171:0 172:0 173:0 174:0 175:0 176:0 177:0 178:0 179:0 180:0 181:0 182:0 183:0 184:0 185:0 186:0 187:0 188:0 189:0 190:0 191:0 192:0 193:0 194:0 195:0 196:0 197:0 198:0 199:0 200:0 201:-0.19277911 202:-0.46714466 203:-0.3659331 204:0.31966264 205:-0.73212449 206:-1.1224925 207:0.62073605 208:0 209:0 210:0 211:0 212:0 213:0 214:0 215:0 216:0 217:0 218:0 219:0 220:0 221:0 222:0 223:0 224:0 225:0 226:0 227:0 228:0 229:0 230:0 231:0 232:0 233:0 234:0 235:0 236:0 237:0 238:0 239:0 240:0 241:0 242:0 243:0 244:0 245:0 246:0 247:0 248:0 249:0 250:0 251:-0.24593659 252:0.01225686 253:0.088878556 254:-1.2565023 255:-2.1043138 256:2.4526419 257:1.5359767 258:0 259:0 260:0 261:0 262:0 263:0 264:0 265:0 266:0 267:0 268:0 269:0 270:0 271:0 272:0 273:0 274:0 275:0 276:0 277:0 278:0 279:0 280:0 281:0 282:0 283:0 284:0 285:0 286:0 287:0 288:0 289:0 290:0 291:0 292:0 293:0 294:0 295:0 296:0 297:0 298:0 299:0 300:0 
-0 0 0.001151099608207322 0 0 0 0 0.000220929833825883 0.0002849490917951797 0 0 0 0 0 0.009327823400133798 0 0 0 0 0.001157568658125429 0 0 0 0 0 0 0 0.0002909661941035593 0 0 1:-0.838 2:-3.3405918 3:2.7025306 4:6.214694 5:3.9883879 6:-10.100653 7:5.5377142 8:0 9:0 10:0 11:0 12:0 13:0 14:0 15:0 16:0 17:0 18:0 19:0 20:0 21:0 22:0 23:0 24:0 25:0 26:0 27:0 28:0 29:0 30:0 31:0 32:0 33:0 34:0 35:0 36:0 37:0 38:0 39:0 40:0 41:0 42:0 43:0 44:0 45:0 46:0 47:0 48:0 49:0 50:0 51:6.54 52:-0.57597958 53:-3.5247347 54:2.6712042 55:-3.1767551 56:-4.1642041 57:-1.324204 58:0 59:0 60:0 61:0 62:0 63:0 64:0 65:0 66:0 67:0 68:0 69:0 70:0 71:0 72:0 73:0 74:0 75:0 76:0 77:0 78:0 79:0 80:0 81:0 82:0 83:0 84:0 85:0 86:0 87:0 88:0 89:0 90:0 91:0 92:0 93:0 94:0 95:0 96:0 97:0 98:0 99:0 100:0 101:8.0170002 102:-6.0887346 103:15.687735 104:19.795 105:-0.55906121 106:3.8488979 107:19.795 108:0 109:0 110:0 111:0 112:0 113:0 114:0 115:0 116:0 117:0 118:0 119:0 120:0 121:0 122:0 123:0 124:0 125:0 126:0 127:0 128:0 129:0 130:0 131:0 132:0 133:0 134:0 135:0 136:0 137:0 138:0 139:0 140:0 141:0 142:0 143:0 144:0 145:0 146:0 147:0 148:0 149:0 150:0 151:1.6277645 152:-0.78149724 153:-4.7894227 154:2.1341348 155:2.4181145 156:-3.1093765 157:-0.22551753 158:0 159:0 160:0 161:0 162:0 163:0 164:0 165:0 166:0 167:0 168:0 169:0 170:0 171:0 172:0 173:0 174:0 175:0 176:0 177:0 178:0 179:0 180:0 181:0 182:0 183:0 184:0 185:0 186:0 187:0 188:0 189:0 190:0 191:0 192:0 193:0 194:0 195:0 196:0 197:0 198:0 199:0 200:0 201:-0.10964562 202:-0.66230555 203:-0.57961522 204:-0.26199449 205:-0.27428941 206:-1.6244528 207:0.21672187 208:0 209:0 210:0 211:0 212:0 213:0 214:0 215:0 216:0 217:0 218:0 219:0 220:0 221:0 222:0 223:0 224:0 225:0 226:0 227:0 228:0 229:0 230:0 231:0 232:0 233:0 234:0 235:0 236:0 237:0 238:0 239:0 240:0 241:0 242:0 243:0 244:0 245:0 246:0 247:0 248:0 249:0 250:0 251:-0.34252599 252:0.32054085 253:0.75132273 254:-0.10796261 255:-2.6349668 256:-0.49188403 257:3.901975 258:0 259:0 260:0 261:0 262:0 263:0 264:0 265:0 266:0 267:0 268:0 269:0 270:0 271:0 272:0 273:0 274:0 275:0 276:0 277:0 278:0 279:0 280:0 281:0 282:0 283:0 284:0 285:0 286:0 287:0 288:0 289:0 290:0 291:0 292:0 293:0 294:0 295:0 296:0 297:0 298:0 299:0 300:0 
-0 0 0.001363661859945559 0.001712772128759583 0.001075058154903125 0 0.000221476138218046 0.003123247828089913 0.001065466075288797 0.0001126193229479766 0.00065842949217718 0 0 0.0004985350499564893 0 0 0 0.001092728256075275 0.0005359558151057406 0 0.002112220182212062 0 0.0008640792106522562 0 0.002521020324400993 0 0 0.001286304052207767 0 0.0006316135685788836 1:0.33399999 2:-0.63400002 3:3.5256939 4:7.141755 5:-1.8431021 6:-8.1504895 7:8.4565711 8:0 9:0 10:0 11:0 12:0 13:0 14:0 15:0 16:0 17:0 18:0 19:0 20:0 21:0 22:0 23:0 24:0 25:0 26:0 27:0 28:0 29:0 30:0 31:0 32:0 33:0 34:0 35:0 36:0 37:0 38:0 39:0 40:0 41:0 42:0 43:0 44:0 45:0 46:0 47:0 48:0 49:0 50:0 51:6.0089998 52:1.0022857 53:-1.5997755 54:1.0648367 55:-3.5661224 56:-3.1634081 57:1.0095714 58:0 59:0 60:0 61:0 62:0 63:0 64:0 65:0 66:0 67:0 68:0 69:0 70:0 71:0 72:0 73:0 74:0 75:0 76:0 77:0 78:0 79:0 80:0 81:0 82:0 83:0 84:0 85:0 86:0 87:0 88:0 89:0 90:0 91:0 92:0 93:0 94:0 95:0 96:0 97:0 98:0 99:0 100:0 101:3.7739999 102:-4.8495307 103:18.149531 104:15.472184 105:-0.53757141 106:17.320307 107:11.698816 108:0 109:0 110:0 111:0 112:0 113:0 114:0 115:0 116:0 117:0 118:0 119:0 120:0 121:0 122:0 123:0 124:0 125:0 126:0 127:0 128:0 129:0 130:0 131:0 132:0 133:0 134:0 135:0 136:0 137:0 138:0 139:0 140:0 141:0 142:0 143:0 144:0 145:0 146:0 147:0 148:0 149:0 150:0 151:1.2087663 152:-1.4781073 153:-4.1284333 154:3.1095831 155:-0.40748627 156:-1.7497675 157:0.7899422 158:0 159:0 160:0 161:0 162:0 163:0 164:0 165:0 166:0 167:0 168:0 169:0 170:0 171:0 172:0 173:0 174:0 175:0 176:0 177:0 178:0 179:0 180:0 181:0 182:0 183:0 184:0 185:0 186:0 187:0 188:0 189:0 190:0 191:0 192:0 193:0 194:0 195:0 196:0 197:0 198:0 199:0 200:0 201:-0.42006394 202:-0.17306699 203:-0.57426167 204:0.042616246 205:-1.3242005 206:-0.27459394 207:0.34460052 208:0 209:0 210:0 211:0 212:0 213:0 214:0 215:0 216:0 217:0 218:0 219:0 220:0 221:0 222:0 223:0 224:0 225:0 226:0 227:0 228:0 229:0 230:0 231:0 232:0 233:0 234:0 235:0 236:0 237:0 238:0 239:0 240:0 241:0 242:0 243:0 244:0 245:0 246:0 247:0 248:0 249:0 250:0 251:-0.32054356 252:0.0051577786 253:0.47300661 254:-1.1515332 255:-2.54167 256:2.5931527 257:1.037869 258:0 259:0 260:0 261:0 262:0 263:0 264:0 265:0 266:0 267:0 268:0 269:0 270:0 271:0 272:0 273:0 274:0 275:0 276:0 277:0 278:0 279:0 280:0 281:0 282:0 283:0 284:0 285:0 286:0 287:0 288:0 289:0 290:0 291:0 292:0 293:0 294:0 295:0 296:0 297:0 298:0 299:0 300:0 
-0.00319266675126354 0.002383586911277839 0.001960810275997325 0.0002670668449506855 0 0.003682493962685878 0 0.0009778808286244219 0.002387604181951604 0.0003671489616604643 0 0.005100990404068115 0.01 0.001617699164602738 0 0.004031359118143467 0.001233656754347269 0.0002828737707705079 0 0.003780867392491381 0.001761851315069221 0 0.003606411020698829 0 0.0004611193842444527 0.001233230548966123 0.0005841004628781687 0.001966961912283396 0.00214459110096958 0.0008437546049132289 1:0.28 2:-1.2437755 3:-0.27446939 4:5.6407144 5:2.7128368 6:-9.0240614 7:5.4320814 8:0 9:0 10:0 11:0 12:0 13:0 14:0 15:0 16:0 17:0 18:0 19:0 20:0 21:0 22:0 23:0 24:0 25:0 26:0 27:0 28:0 29:0 30:0 31:0 32:0 33:0 34:0 35:0 36:0 37:0 38:0 39:0 40:0 41:0 42:0 43:0 44:0 45:0 46:0 47:0 48:0 49:0 50:0 51:5.7919998 52:1.3699796 53:-1.7165102 54:1.299102 55:-2.7878163 56:-4.4252041 57:-1.0513878 58:0 59:0 60:0 61:0 62:0 63:0 64:0 65:0 66:0 67:0 68:0 69:0 70:0 71:0 72:0 73:0 74:0 75:0 76:0 77:0 78:0 79:0 80:0 81:0 82:0 83:0 84:0 85:0 86:0 87:0 88:0 89:0 90:0 91:0 92:0 93:0 94:0 95:0 96:0 97:0 98:0 99:0 100:0 101:6.5469999 102:-3.8035102 103:5.2302654 104:19.795 105:-1.6334286 106:6.6256531 107:16.118163 108:0 109:0 110:0 111:0 112:0 113:0 114:0 115:0 116:0 117:0 118:0 119:0 120:0 121:0 122:0 123:0 124:0 125:0 126:0 127:0 128:0 129:0 130:0 131:0 132:0 133:0 134:0 135:0 136:0 137:0 138:0 139:0 140:0 141:0 142:0 143:0 144:0 145:0 146:0 147:0 148:0 149:0 150:0 151:1.1123102 152:0.013393368 153:-5.3431213 154:1.458504 155:1.945793 156:-3.0117757 157:0.65314281 158:0 159:0 160:0 161:0 162:0 163:0 164:0 165:0 166:0 167:0 168:0 169:0 170:0 171:0 172:0 173:0 174:0 175:0 176:0 177:0 178:0 179:0 180:0 181:0 182:0 183:0 184:0 185:0 186:0 187:0 188:0 189:0 190:0 191:0 192:0 193:0 194:0 195:0 196:0 197:0 198:0 199:0 200:0 201:-0.38089529 202:0.36102002 203:0.19377695 204:-0.25437337 205:-0.53652318 206:-1.3534153 207:0.22296992 208:0 209:0 210:0 211:0 212:0 213:0 214:0 215:0 216:0 217:0 218:0 219:0 220:0 221:0 222:0 223:0 224:0 225:0 226:0 227:0 228:0 229:0 230:0 231:0 232:0 233:0 234:0 235:0 236:0 237:0 238:0 239:0 240:0 241:0 242:0 243:0 244:0 245:0 246:0 247:0 248:0 249:0 250:0 251:0.018918199 252:-0.18067994 253:0.73862544 254:-0.12262027 255:-2.4116788 256:-0.002387207 257:3.1486811 258:0 259:0 260:0 261:0 262:0 263:0 264:0 265:0 266:0 267:0 268:0 269:0 270:0 271:0 272:0 273:0 274:0 275:0 276:0 277:0 278:0 279:0 280:0 281:0 282:0 283:0 284:0 285:0 286:0 287:0 288:0 289:0 290:0 291:0 292:0 293:0 294:0 295:0 296:0 297:0 298:0 299:0 300:0 
-0 -0.0002303897664459457 0.000147272517496264 0 0 0 0 0 0.00114238394241229 0 0 0 0 0.01 0.0005205231156831153 0 0 0 0 0 0.0004509995008961118 0 0.001613922015718401 0 0.0005168013956317764 0 0 0.000437876490494551 0 0.0002046441243577059 1:-0.83600003 2:-9.7270817 3:8.7625712 4:7.5619593 5:-4.634898 6:0 7:0 8:0 9:0 10:0 11:0 12:0 13:0 14:0 15:0 16:0 17:0 18:0 19:0 20:0 21:0 22:0 23:0 24:0 25:0 26:0 27:0 28:0 29:0 30:0 31:0 32:0 33:0 34:0 35:0 36:0 37:0 38:0 39:0 40:0 41:0 42:0 43:0 44:0 45:0 46:0 47:0 48:0 49:0 50:0 51:5.3730001 52:-1.1266735 53:-1.3295102 54:-1.1362041 55:-2.3188163 56:0 57:0 58:0 59:0 60:0 61:0 62:0 63:0 64:0 65:0 66:0 67:0 68:0 69:0 70:0 71:0 72:0 73:0 74:0 75:0 76:0 77:0 78:0 79:0 80:0 81:0 82:0 83:0 84:0 85:0 86:0 87:0 88:0 89:0 90:0 91:0 92:0 93:0 94:0 95:0 96:0 97:0 98:0 99:0 100:0 101:9.1709995 102:6.4431429 103:2.3151633 104:19.795 105:9.5551222 106:0 107:0 108:0 109:0 110:0 111:0 112:0 113:0 114:0 115:0 116:0 117:0 118:0 119:0 120:0 121:0 122:0 123:0 124:0 125:0 126:0 127:0 128:0 129:0 130:0 131:0 132:0 133:0 134:0 135:0 136:0 137:0 138:0 139:0 140:0 141:0 142:0 143:0 144:0 145:0 146:0 147:0 148:0 149:0 150:0 151:0.27058354 152:1.3783911 153:-3.0251771 154:-1.1053606 155:1.3564632 156:0 157:0 158:0 159:0 160:0 161:0 162:0 163:0 164:0 165:0 166:0 167:0 168:0 169:0 170:0 171:0 172:0 173:0 174:0 175:0 176:0 177:0 178:0 179:0 180:0 181:0 182:0 183:0 184:0 185:0 186:0 187:0 188:0 189:0 190:0 191:0 192:0 193:0 194:0 195:0 196:0 197:0 198:0 199:0 200:0 201:-0.062083665 202:1.0228117 203:0.23989788 204:-0.24977841 205:0.36309456 206:0 207:0 208:0 209:0 210:0 211:0 212:0 213:0 214:0 215:0 216:0 217:0 218:0 219:0 220:0 221:0 222:0 223:0 224:0 225:0 226:0 227:0 228:0 229:0 230:0 231:0 232:0 233:0 234:0 235:0 236:0 237:0 238:0 239:0 240:0 241:0 242:0 243:0 244:0 245:0 246:0 247:0 248:0 249:0 250:0 251:-0.19344525 252:1.6184196 253:2.6588171 254:-3.0439621 255:-0.28832172 256:0 257:0 258:0 259:0 260:0 261:0 262:0 263:0 264:0 265:0 266:0 267:0 268:0 269:0 270:0 271:0 272:0 273:0 274:0 275:0 276:0 277:0 278:0 279:0 280:0 281:0 282:0 283:0 284:0 285:0 286:0 287:0 288:0 289:0 290:0 291:0 292:0 293:0 294:0 295:0 296:0 297:0 298:0 299:0 300:0 
-0 -0 0 0 0 0 0 0 0 0 0 0 0 0 0 0 0 0.001190004401299996 0 0 0 0 0 0 0 0 0.001954478593140859 0 0 0 1:-0.71700001 2:-12.289449 3:14.77298 4:1.661 5:-1.4380204 6:0 7:0 8:0 9:0 10:0 11:0 12:0 13:0 14:0 15:0 16:0 17:0 18:0 19:0 20:0 21:0 22:0 23:0 24:0 25:0 26:0 27:0 28:0 29:0 30:0 31:0 32:0 33:0 34:0 35:0 36:0 37:0 38:0 39:0 40:0 41:0 42:0 43:0 44:0 45:0 46:0 47:0 48:0 49:0 50:0 51:4.5879998 52:-1.6637346 53:0.47612244 54:-0.31122449 55:-0.9372041 56:0 57:0 58:0 59:0 60:0 61:0 62:0 63:0 64:0 65:0 66:0 67:0 68:0 69:0 70:0 71:0 72:0 73:0 74:0 75:0 76:0 77:0 78:0 79:0 80:0 81:0 82:0 83:0 84:0 85:0 86:0 87:0 88:0 89:0 90:0 91:0 92:0 93:0 94:0 95:0 96:0 97:0 98:0 99:0 100:0 101:8.4680004 102:6.0487143 103:2.3836939 104:19.259959 105:6.4680817 106:0 107:0 108:0 109:0 110:0 111:0 112:0 113:0 114:0 115:0 116:0 117:0 118:0 119:0 120:0 121:0 122:0 123:0 124:0 125:0 126:0 127:0 128:0 129:0 130:0 131:0 132:0 133:0 134:0 135:0 136:0 137:0 138:0 139:0 140:0 141:0 142:0 143:0 144:0 145:0 146:0 147:0 148:0 149:0 150:0 151:0.11164401 152:1.390417 153:-2.9503091 154:-0.7013736 155:0.38770073 156:0 157:0 158:0 159:0 160:0 161:0 162:0 163:0 164:0 165:0 166:0 167:0 168:0 169:0 170:0 171:0 172:0 173:0 174:0 175:0 176:0 177:0 178:0 179:0 180:0 181:0 182:0 183:0 184:0 185:0 186:0 187:0 188:0 189:0 190:0 191:0 192:0 193:0 194:0 195:0 196:0 197:0 198:0 199:0 200:0 201:-0.0095923264 202:0.89948991 203:0.35688185 204:-0.25162727 205:0.34768647 206:0 207:0 208:0 209:0 210:0 211:0 212:0 213:0 214:0 215:0 216:0 217:0 218:0 219:0 220:0 221:0 222:0 223:0 224:0 225:0 226:0 227:0 228:0 229:0 230:0 231:0 232:0 233:0 234:0 235:0 236:0 237:0 238:0 239:0 240:0 241:0 242:0 243:0 244:0 245:0 246:0 247:0 248:0 249:0 250:0 251:-0.48054889 252:1.7509394 253:2.404441 254:-2.8185641 255:-0.18783341 256:0 257:0 258:0 259:0 260:0 261:0 262:0 263:0 264:0 265:0 266:0 267:0 268:0 269:0 270:0 271:0 272:0 273:0 274:0 275:0 276:0 277:0 278:0 279:0 280:0 281:0 282:0 283:0 284:0 285:0 286:0 287:0 288:0 289:0 290:0 291:0 292:0 293:0 294:0 295:0 296:0 297:0 298:0 299:0 300:0 
-0 -0 0 0 0 0 0 0 0 0.0003492925633231094 0 0 0 0.002228686885028969 0 0 0 0 5.173947261041077e-06 0 0 0 0 0 0 0 0 0 0 0 1:-1.345 2:-11.825224 3:9.9799592 4:3.8932858 5:-4.0982245 6:0 7:0 8:0 9:0 10:0 11:0 12:0 13:0 14:0 15:0 16:0 17:0 18:0 19:0 20:0 21:0 22:0 23:0 24:0 25:0 26:0 27:0 28:0 29:0 30:0 31:0 32:0 33:0 34:0 35:0 36:0 37:0 38:0 39:0 40:0 41:0 42:0 43:0 44:0 45:0 46:0 47:0 48:0 49:0 50:0 51:4.1760001 52:-0.12461224 53:-3.7643469 54:-2.6916531 55:-1.6121837 56:0 57:0 58:0 59:0 60:0 61:0 62:0 63:0 64:0 65:0 66:0 67:0 68:0 69:0 70:0 71:0 72:0 73:0 74:0 75:0 76:0 77:0 78:0 79:0 80:0 81:0 82:0 83:0 84:0 85:0 86:0 87:0 88:0 89:0 90:0 91:0 92:0 93:0 94:0 95:0 96:0 97:0 98:0 99:0 100:0 101:8.2360001 102:14.361816 103:-3.176755 104:19.795 105:7.3621021 106:0 107:0 108:0 109:0 110:0 111:0 112:0 113:0 114:0 115:0 116:0 117:0 118:0 119:0 120:0 121:0 122:0 123:0 124:0 125:0 126:0 127:0 128:0 129:0 130:0 131:0 132:0 133:0 134:0 135:0 136:0 137:0 138:0 139:0 140:0 141:0 142:0 143:0 144:0 145:0 146:0 147:0 148:0 149:0 150:0 151:-0.014122035 152:1.9586779 153:-2.6499046 154:-1.1217747 155:0.79917292 156:0 157:0 158:0 159:0 160:0 161:0 162:0 163:0 164:0 165:0 166:0 167:0 168:0 169:0 170:0 171:0 172:0 173:0 174:0 175:0 176:0 177:0 178:0 179:0 180:0 181:0 182:0 183:0 184:0 185:0 186:0 187:0 188:0 189:0 190:0 191:0 192:0 193:0 194:0 195:0 196:0 197:0 198:0 199:0 200:0 201:-0.20130563 202:0.86970424 203:0.42613255 204:0.12410207 205:0.32814021 206:0 207:0 208:0 209:0 210:0 211:0 212:0 213:0 214:0 215:0 216:0 217:0 218:0 219:0 220:0 221:0 222:0 223:0 224:0 225:0 226:0 227:0 228:0 229:0 230:0 231:0 232:0 233:0 234:0 235:0 236:0 237:0 238:0 239:0 240:0 241:0 242:0 243:0 244:0 245:0 246:0 247:0 248:0 249:0 250:0 251:-0.45003998 252:1.1290179 253:3.449238 254:-3.7412845 255:-0.11816126 256:0 257:0 258:0 259:0 260:0 261:0 262:0 263:0 264:0 265:0 266:0 267:0 268:0 269:0 270:0 271:0 272:0 273:0 274:0 275:0 276:0 277:0 278:0 279:0 280:0 281:0 282:0 283:0 284:0 285:0 286:0 287:0 288:0 289:0 290:0 291:0 292:0 293:0 294:0 295:0 296:0 297:0 298:0 299:0 300:0 
-0 -0 0 0 0 0 0 0 0 0 0 0 0 0 0 0 0 0 0 0 0 0 0 0 0 0 0.001475193366961101 0 0 0 1:-0.29699999 2:-10.453653 3:12.40851 4:0.20330613 5:-0.88585714 6:0 7:0 8:0 9:0 10:0 11:0 12:0 13:0 14:0 15:0 16:0 17:0 18:0 19:0 20:0 21:0 22:0 23:0 24:0 25:0 26:0 27:0 28:0 29:0 30:0 31:0 32:0 33:0 34:0 35:0 36:0 37:0 38:0 39:0 40:0 41:0 42:0 43:0 44:0 45:0 46:0 47:0 48:0 49:0 50:0 51:4.5939999 52:-3.0715715 53:0.53702039 54:-1.2371633 55:-0.20508163 56:0 57:0 58:0 59:0 60:0 61:0 62:0 63:0 64:0 65:0 66:0 67:0 68:0 69:0 70:0 71:0 72:0 73:0 74:0 75:0 76:0 77:0 78:0 79:0 80:0 81:0 82:0 83:0 84:0 85:0 86:0 87:0 88:0 89:0 90:0 91:0 92:0 93:0 94:0 95:0 96:0 97:0 98:0 99:0 100:0 101:7.6479998 102:6.9762245 103:0.82267346 104:19.795 105:1.7719796 106:0 107:0 108:0 109:0 110:0 111:0 112:0 113:0 114:0 115:0 116:0 117:0 118:0 119:0 120:0 121:0 122:0 123:0 124:0 125:0 126:0 127:0 128:0 129:0 130:0 131:0 132:0 133:0 134:0 135:0 136:0 137:0 138:0 139:0 140:0 141:0 142:0 143:0 144:0 145:0 146:0 147:0 148:0 149:0 150:0 151:-0.097122304 152:1.8175582 153:-3.0557023 154:-0.31620146 155:0.11229384 156:0 157:0 158:0 159:0 160:0 161:0 162:0 163:0 164:0 165:0 166:0 167:0 168:0 169:0 170:0 171:0 172:0 173:0 174:0 175:0 176:0 177:0 178:0 179:0 180:0 181:0 182:0 183:0 184:0 185:0 186:0 187:0 188:0 189:0 190:0 191:0 192:0 193:0 194:0 195:0 196:0 197:0 198:0 199:0 200:0 201:-0.010791367 202:1.2479921 203:0.12719892 204:-0.22435113 205:0.062279427 206:0 207:0 208:0 209:0 210:0 211:0 212:0 213:0 214:0 215:0 216:0 217:0 218:0 219:0 220:0 221:0 222:0 223:0 224:0 225:0 226:0 227:0 228:0 229:0 230:0 231:0 232:0 233:0 234:0 235:0 236:0 237:0 238:0 239:0 240:0 241:0 242:0 243:0 244:0 245:0 246:0 247:0 248:0 249:0 250:0 251:-0.81401545 252:2.0514744 253:1.8589264 254:-3.6872652 255:0.054609373 256:0 257:0 258:0 259:0 260:0 261:0 262:0 263:0 264:0 265:0 266:0 267:0 268:0 269:0 270:0 271:0 272:0 273:0 274:0 275:0 276:0 277:0 278:0 279:0 280:0 281:0 282:0 283:0 284:0 285:0 286:0 287:0 288:0 289:0 290:0 291:0 292:0 293:0 294:0 295:0 296:0 297:0 298:0 299:0 300:0 
-0 -0 0 0 0 0 0 0 0 6.476583950320066e-05 0 0 0 0 0 0 0.0007221366740688183 0 0 0 0 0 0 0 0 0 0 0 0.004265305712097858 0 1:-0.93099999 2:-10.733061 3:8.2318163 4:4.510449 5:-1.1861837 6:0 7:0 8:0 9:0 10:0 11:0 12:0 13:0 14:0 15:0 16:0 17:0 18:0 19:0 20:0 21:0 22:0 23:0 24:0 25:0 26:0 27:0 28:0 29:0 30:0 31:0 32:0 33:0 34:0 35:0 36:0 37:0 38:0 39:0 40:0 41:0 42:0 43:0 44:0 45:0 46:0 47:0 48:0 49:0 50:0 51:3.5999999 52:0.26895918 53:-2.4889183 54:-1.6439184 55:-0.59985712 56:0 57:0 58:0 59:0 60:0 61:0 62:0 63:0 64:0 65:0 66:0 67:0 68:0 69:0 70:0 71:0 72:0 73:0 74:0 75:0 76:0 77:0 78:0 79:0 80:0 81:0 82:0 83:0 84:0 85:0 86:0 87:0 88:0 89:0 90:0 91:0 92:0 93:0 94:0 95:0 96:0 97:0 98:0 99:0 100:0 101:8.3210001 102:10.402368 103:-1.9954897 104:19.103142 105:2.2009795 106:0 107:0 108:0 109:0 110:0 111:0 112:0 113:0 114:0 115:0 116:0 117:0 118:0 119:0 120:0 121:0 122:0 123:0 124:0 125:0 126:0 127:0 128:0 129:0 130:0 131:0 132:0 133:0 134:0 135:0 136:0 137:0 138:0 139:0 140:0 141:0 142:0 143:0 144:0 145:0 146:0 147:0 148:0 149:0 150:0 151:0.067679189 152:1.5740605 153:-2.3881603 154:-1.4200014 155:0.25229884 156:0 157:0 158:0 159:0 160:0 161:0 162:0 163:0 164:0 165:0 166:0 167:0 168:0 169:0 170:0 171:0 172:0 173:0 174:0 175:0 176:0 177:0 178:0 179:0 180:0 181:0 182:0 183:0 184:0 185:0 186:0 187:0 188:0 189:0 190:0 191:0 192:0 193:0 194:0 195:0 196:0 197:0 198:0 199:0 200:0 201:-0.23794298 202:1.1529851 203:-0.067586748 204:-0.072157237 205:0.13099181 206:0 207:0 208:0 209:0 210:0 211:0 212:0 213:0 214:0 215:0 216:0 217:0 218:0 219:0 220:0 221:0 222:0 223:0 224:0 225:0 226:0 227:0 228:0 229:0 230:0 231:0 232:0 233:0 234:0 235:0 236:0 237:0 238:0 239:0 240:0 241:0 242:0 243:0 244:0 245:0 246:0 247:0 248:0 249:0 250:0 251:-0.22528644 252:0.86437787 253:3.1107767 254:-3.7778621 255:-0.081790348 256:0 257:0 258:0 259:0 260:0 261:0 262:0 263:0 264:0 265:0 266:0 267:0 268:0 269:0 270:0 271:0 272:0 273:0 274:0 275:0 276:0 277:0 278:0 279:0 280:0 281:0 282:0 283:0 284:0 285:0 286:0 287:0 288:0 289:0 290:0 291:0 292:0 293:0 294:0 295:0 296:0 297:0 298:0 299:0 300:0 
-0.002440810768729335 -0.0008796179928721063 0.000526204955986889 0 0 0 0 0 0.00240765350979966 0 0 0 0 0 0 0 0 0 0 0.002769169133405555 0 0 0 0 0 0 0 0 0 0 1:-1.675 2:-9.4599795 3:10.118836 4:1.1837347 5:0 6:0 7:0 8:0 9:0 10:0 11:0 12:0 13:0 14:0 15:0 16:0 17:0 18:0 19:0 20:0 21:0 22:0 23:0 24:0 25:0 26:0 27:0 28:0 29:0 30:0 31:0 32:0 33:0 34:0 35:0 36:0 37:0 38:0 39:0 40:0 41:0 42:0 43:0 44:0 45:0 46:0 47:0 48:0 49:0 50:0 51:4.5560002 52:-2.8663265 53:-1.6497754 54:-2.4092245 55:0 56:0 57:0 58:0 59:0 60:0 61:0 62:0 63:0 64:0 65:0 66:0 67:0 68:0 69:0 70:0 71:0 72:0 73:0 74:0 75:0 76:0 77:0 78:0 79:0 80:0 81:0 82:0 83:0 84:0 85:0 86:0 87:0 88:0 89:0 90:0 91:0 92:0 93:0 94:0 95:0 96:0 97:0 98:0 99:0 100:0 101:9.4910002 102:3.7528164 103:0.57312244 104:19.795 105:0 106:0 107:0 108:0 109:0 110:0 111:0 112:0 113:0 114:0 115:0 116:0 117:0 118:0 119:0 120:0 121:0 122:0 123:0 124:0 125:0 126:0 127:0 128:0 129:0 130:0 131:0 132:0 133:0 134:0 135:0 136:0 137:0 138:0 139:0 140:0 141:0 142:0 143:0 144:0 145:0 146:0 147:0 148:0 149:0 150:0 151:0.14348522 152:1.3946367 153:-3.1829857 154:-0.53506311 155:0 156:0 157:0 158:0 159:0 160:0 161:0 162:0 163:0 164:0 165:0 166:0 167:0 168:0 169:0 170:0 171:0 172:0 173:0 174:0 175:0 176:0 177:0 178:0 179:0 180:0 181:0 182:0 183:0 184:0 185:0 186:0 187:0 188:0 189:0 190:0 191:0 192:0 193:0 194:0 195:0 196:0 197:0 198:0 199:0 200:0 201:-0.22581935 202:1.3297009 203:-0.29407766 204:0.39915007 205:0 206:0 207:0 208:0 209:0 210:0 211:0 212:0 213:0 214:0 215:0 216:0 217:0 218:0 219:0 220:0 221:0 222:0 223:0 224:0 225:0 226:0 227:0 228:0 229:0 230:0 231:0 232:0 233:0 234:0 235:0 236:0 237:0 238:0 239:0 240:0 241:0 242:0 243:0 244:0 245:0 246:0 247:0 248:0 249:0 250:0 251:-0.267919 252:2.295633 253:2.3477571 254:-3.5436195 255:0 256:0 257:0 258:0 259:0 260:0 261:0 262:0 263:0 264:0 265:0 266:0 267:0 268:0 269:0 270:0 271:0 272:0 273:0 274:0 275:0 276:0 277:0 278:0 279:0 280:0 281:0 282:0 283:0 284:0 285:0 286:0 287:0 288:0 289:0 290:0 291:0 292:0 293:0 294:0 295:0 296:0 297:0 298:0 299:0 300:0 
-0.00275064957480733 -0 0 0 0 0 0 0 0 0 0 0 1.689226564490814e-05 0 0 0 0 0 0 0 0 0 0 0 0 0 0 0 0 0.0004841352510690565 1:-0.51599997 2:-10.287694 3:5.0752857 4:15.462429 5:-5.715306 6:0 7:0 8:0 9:0 10:0 11:0 12:0 13:0 14:0 15:0 16:0 17:0 18:0 19:0 20:0 21:0 22:0 23:0 24:0 25:0 26:0 27:0 28:0 29:0 30:0 31:0 32:0 33:0 34:0 35:0 36:0 37:0 38:0 39:0 40:0 41:0 42:0 43:0 44:0 45:0 46:0 47:0 48:0 49:0 50:0 51:3.618 52:1.8864693 53:-3.7768163 54:1.2472245 55:-3.3921838 56:0 57:0 58:0 59:0 60:0 61:0 62:0 63:0 64:0 65:0 66:0 67:0 68:0 69:0 70:0 71:0 72:0 73:0 74:0 75:0 76:0 77:0 78:0 79:0 80:0 81:0 82:0 83:0 84:0 85:0 86:0 87:0 88:0 89:0 90:0 91:0 92:0 93:0 94:0 95:0 96:0 97:0 98:0 99:0 100:0 101:8.7209997 102:13.000898 103:-2.0917756 104:18.200225 105:12.044184 106:0 107:0 108:0 109:0 110:0 111:0 112:0 113:0 114:0 115:0 116:0 117:0 118:0 119:0 120:0 121:0 122:0 123:0 124:0 125:0 126:0 127:0 128:0 129:0 130:0 131:0 132:0 133:0 134:0 135:0 136:0 137:0 138:0 139:0 140:0 141:0 142:0 143:0 144:0 145:0 146:0 147:0 148:0 149:0 150:0 151:0.26072475 152:1.5616867 153:-1.0446364 154:-3.0100464 155:0.87791534 156:0 157:0 158:0 159:0 160:0 161:0 162:0 163:0 164:0 165:0 166:0 167:0 168:0 169:0 170:0 171:0 172:0 173:0 174:0 175:0 176:0 177:0 178:0 179:0 180:0 181:0 182:0 183:0 184:0 185:0 186:0 187:0 188:0 189:0 190:0 191:0 192:0 193:0 194:0 195:0 196:0 197:0 198:0 199:0 200:0 201:-0.13908873 202:1.0417272 203:0.17239814 204:0.30377332 205:0.55315202 206:0 207:0 208:0 209:0 210:0 211:0 212:0 213:0 214:0 215:0 216:0 217:0 218:0 219:0 220:0 221:0 222:0 223:0 224:0 225:0 226:0 227:0 228:0 229:0 230:0 231:0 232:0 233:0 234:0 235:0 236:0 237:0 238:0 239:0 240:0 241:0 242:0 243:0 244:0 245:0 246:0 247:0 248:0 249:0 250:0 251:-0.32667199 252:0.30130454 253:3.7263114 254:-3.0065825 255:-1.1797854 256:0 257:0 258:0 259:0 260:0 261:0 262:0 263:0 264:0 265:0 266:0 267:0 268:0 269:0 270:0 271:0 272:0 273:0 274:0 275:0 276:0 277:0 278:0 279:0 280:0 281:0 282:0 283:0 284:0 285:0 286:0 287:0 288:0 289:0 290:0 291:0 292:0 293:0 294:0 295:0 296:0 297:0 298:0 299:0 300:0 
-0.00166848880597774 -0.001302994901646755 0.001287272105850034 0.0005103709864696491 0.0002746041506382411 0.002943837849516462 0.0001412145614813865 0.002394350071811899 0.001292001394640262 0 0 0.002043607182352466 0.003574650821365793 0 0.002211359669558357 0.004349072715668937 0.000672720269393291 0 0 0.0004978606834515498 0.002850922838515079 0 0.0007286031741435575 0 0 0.001785796814455279 0.0001923807728088228 0.004676585399448172 0 0 1:-0.052000001 2:-8.8184896 3:9.5588773 4:1.4805715 5:0 6:0 7:0 8:0 9:0 10:0 11:0 12:0 13:0 14:0 15:0 16:0 17:0 18:0 19:0 20:0 21:0 22:0 23:0 24:0 25:0 26:0 27:0 28:0 29:0 30:0 31:0 32:0 33:0 34:0 35:0 36:0 37:0 38:0 39:0 40:0 41:0 42:0 43:0 44:0 45:0 46:0 47:0 48:0 49:0 50:0 51:5.0190001 52:-0.97524492 53:-1.5403469 54:-1.4662449 55:0 56:0 57:0 58:0 59:0 60:0 61:0 62:0 63:0 64:0 65:0 66:0 67:0 68:0 69:0 70:0 71:0 72:0 73:0 74:0 75:0 76:0 77:0 78:0 79:0 80:0 81:0 82:0 83:0 84:0 85:0 86:0 87:0 88:0 89:0 90:0 91:0 92:0 93:0 94:0 95:0 96:0 97:0 98:0 99:0 100:0 101:8.9510002 102:6.5842246 103:1.3521837 104:19.795 105:0 106:0 107:0 108:0 109:0 110:0 111:0 112:0 113:0 114:0 115:0 116:0 117:0 118:0 119:0 120:0 121:0 122:0 123:0 124:0 125:0 126:0 127:0 128:0 129:0 130:0 131:0 132:0 133:0 134:0 135:0 136:0 137:0 138:0 139:0 140:0 141:0 142:0 143:0 144:0 145:0 146:0 147:0 148:0 149:0 150:0 151:-0.14228617 152:1.4168176 153:-3.0565698 154:-1.2994149 155:0 156:0 157:0 158:0 159:0 160:0 161:0 162:0 163:0 164:0 165:0 166:0 167:0 168:0 169:0 170:0 171:0 172:0 173:0 174:0 175:0 176:0 177:0 178:0 179:0 180:0 181:0 182:0 183:0 184:0 185:0 186:0 187:0 188:0 189:0 190:0 191:0 192:0 193:0 194:0 195:0 196:0 197:0 198:0 199:0 200:0 201:-0.088995472 202:1.3756233 203:-0.20479128 204:-0.24112955 205:0 206:0 207:0 208:0 209:0 210:0 211:0 212:0 213:0 214:0 215:0 216:0 217:0 218:0 219:0 220:0 221:0 222:0 223:0 224:0 225:0 226:0 227:0 228:0 229:0 230:0 231:0 232:0 233:0 234:0 235:0 236:0 237:0 238:0 239:0 240:0 241:0 242:0 243:0 244:0 245:0 246:0 247:0 248:0 249:0 250:0 251:-0.43045563 252:1.7087473 253:2.4529627 254:-3.3239314 255:0 256:0 257:0 258:0 259:0 260:0 261:0 262:0 263:0 264:0 265:0 266:0 267:0 268:0 269:0 270:0 271:0 272:0 273:0 274:0 275:0 276:0 277:0 278:0 279:0 280:0 281:0 282:0 283:0 284:0 285:0 286:0 287:0 288:0 289:0 290:0 291:0 292:0 293:0 294:0 295:0 296:0 297:0 298:0 299:0 300:0 
-0.001311981772538201 -0 0 0.0009232079777150601 0.0007381963492316925 0.0002957937115274725 0.001084667025426193 0 0 0.000964272281041633 0.001965998926021792 0 0 0.008964479604803718 0 0 0.002390775843257305 0.0002030605593921914 0.001719481263170099 0 0 0.002381084452406097 0 0.002526153326291128 0.000538618241946792 0.0004411175295402939 0 0 0.0002809070811857249 0.001416654678511377 1:-0.028000001 2:-9.6703471 3:6.6561837 4:12.363204 5:-6.9244286 6:0 7:0 8:0 9:0 10:0 11:0 12:0 13:0 14:0 15:0 16:0 17:0 18:0 19:0 20:0 21:0 22:0 23:0 24:0 25:0 26:0 27:0 28:0 29:0 30:0 31:0 32:0 33:0 34:0 35:0 36:0 37:0 38:0 39:0 40:0 41:0 42:0 43:0 44:0 45:0 46:0 47:0 48:0 49:0 50:0 51:4.1160002 52:3.1597346 53:-2.1423674 54:1.8262858 55:-3.5214898 56:0 57:0 58:0 59:0 60:0 61:0 62:0 63:0 64:0 65:0 66:0 67:0 68:0 69:0 70:0 71:0 72:0 73:0 74:0 75:0 76:0 77:0 78:0 79:0 80:0 81:0 82:0 83:0 84:0 85:0 86:0 87:0 88:0 89:0 90:0 91:0 92:0 93:0 94:0 95:0 96:0 97:0 98:0 99:0 100:0 101:7.165 102:13.807694 103:-1.6724082 104:17.504184 105:10.992 106:0 107:0 108:0 109:0 110:0 111:0 112:0 113:0 114:0 115:0 116:0 117:0 118:0 119:0 120:0 121:0 122:0 123:0 124:0 125:0 126:0 127:0 128:0 129:0 130:0 131:0 132:0 133:0 134:0 135:0 136:0 137:0 138:0 139:0 140:0 141:0 142:0 143:0 144:0 145:0 146:0 147:0 148:0 149:0 150:0 151:0.093391955 152:1.583351 153:-1.3809306 154:-2.918805 155:1.1011735 156:0 157:0 158:0 159:0 160:0 161:0 162:0 163:0 164:0 165:0 166:0 167:0 168:0 169:0 170:0 171:0 172:0 173:0 174:0 175:0 176:0 177:0 178:0 179:0 180:0 181:0 182:0 183:0 184:0 185:0 186:0 187:0 188:0 189:0 190:0 191:0 192:0 193:0 194:0 195:0 196:0 197:0 198:0 199:0 200:0 201:0.16013856 202:0.75291331 203:0.68393717 204:0.60266618 205:-0.14698446 206:0 207:0 208:0 209:0 210:0 211:0 212:0 213:0 214:0 215:0 216:0 217:0 218:0 219:0 220:0 221:0 222:0 223:0 224:0 225:0 226:0 227:0 228:0 229:0 230:0 231:0 232:0 233:0 234:0 235:0 236:0 237:0 238:0 239:0 240:0 241:0 242:0 243:0 244:0 245:0 246:0 247:0 248:0 249:0 250:0 251:-0.41580069 252:0.3482221 253:3.2648112 254:-2.6742714 255:-1.6088789 256:0 257:0 258:0 259:0 260:0 261:0 262:0 263:0 264:0 265:0 266:0 267:0 268:0 269:0 270:0 271:0 272:0 273:0 274:0 275:0 276:0 277:0 278:0 279:0 280:0 281:0 282:0 283:0 284:0 285:0 286:0 287:0 288:0 289:0 290:0 291:0 292:0 293:0 294:0 295:0 296:0 297:0 298:0 299:0 300:0 
-0 -0 0.001318480870440286 0 0 0 0 0.001418281916586423 0.0008949192242847785 0 0 0 0 0.01 0.0006432736363329654 0 0 0.002221330304663843 0 0 0.0010887102732779 0 0 0 0.001030369831356988 0 0 0 0 0 1:-1.339 2:-7.4757346 3:13.133918 4:3.6449999 5:-3.0915306 6:0 7:0 8:0 9:0 10:0 11:0 12:0 13:0 14:0 15:0 16:0 17:0 18:0 19:0 20:0 21:0 22:0 23:0 24:0 25:0 26:0 27:0 28:0 29:0 30:0 31:0 32:0 33:0 34:0 35:0 36:0 37:0 38:0 39:0 40:0 41:0 42:0 43:0 44:0 45:0 46:0 47:0 48:0 49:0 50:0 51:5.8000002 52:-3.655653 53:1.6049184 54:-0.79085714 55:0.02085715 56:0 57:0 58:0 59:0 60:0 61:0 62:0 63:0 64:0 65:0 66:0 67:0 68:0 69:0 70:0 71:0 72:0 73:0 74:0 75:0 76:0 77:0 78:0 79:0 80:0 81:0 82:0 83:0 84:0 85:0 86:0 87:0 88:0 89:0 90:0 91:0 92:0 93:0 94:0 95:0 96:0 97:0 98:0 99:0 100:0 101:10.306 102:3.2853266 103:2.9213265 104:19.648591 105:9.2890611 106:0 107:0 108:0 109:0 110:0 111:0 112:0 113:0 114:0 115:0 116:0 117:0 118:0 119:0 120:0 121:0 122:0 123:0 124:0 125:0 126:0 127:0 128:0 129:0 130:0 131:0 132:0 133:0 134:0 135:0 136:0 137:0 138:0 139:0 140:0 141:0 142:0 143:0 144:0 145:0 146:0 147:0 148:0 149:0 150:0 151:0.11537436 152:1.3779399 153:-3.000193 154:-0.47204957 155:0.81271039 156:0 157:0 158:0 159:0 160:0 161:0 162:0 163:0 164:0 165:0 166:0 167:0 168:0 169:0 170:0 171:0 172:0 173:0 174:0 175:0 176:0 177:0 178:0 179:0 180:0 181:0 182:0 183:0 184:0 185:0 186:0 187:0 188:0 189:0 190:0 191:0 192:0 193:0 194:0 195:0 196:0 197:0 198:0 199:0 200:0 201:0.074606977 202:1.4136581 203:0.69031304 204:-0.25528149 205:0.46659272 206:0 207:0 208:0 209:0 210:0 211:0 212:0 213:0 214:0 215:0 216:0 217:0 218:0 219:0 220:0 221:0 222:0 223:0 224:0 225:0 226:0 227:0 228:0 229:0 230:0 231:0 232:0 233:0 234:0 235:0 236:0 237:0 238:0 239:0 240:0 241:0 242:0 243:0 244:0 245:0 246:0 247:0 248:0 249:0 250:0 251:-0.23621103 252:2.1844048 253:1.6025438 254:-3.9438898 255:-0.079536373 256:0 257:0 258:0 259:0 260:0 261:0 262:0 263:0 264:0 265:0 266:0 267:0 268:0 269:0 270:0 271:0 272:0 273:0 274:0 275:0 276:0 277:0 278:0 279:0 280:0 281:0 282:0 283:0 284:0 285:0 286:0 287:0 288:0 289:0 290:0 291:0 292:0 293:0 294:0 295:0 296:0 297:0 298:0 299:0 300:0 
-0.0008887257996691264 -0 0 0 0 0.0006216635066925065 0 0 0 0 0 0 0 0 0 0 0 0 0 0 0 0 0 0 0 0 0 0 0 0 1:-0.41100001 2:-9.5844081 3:7.9031431 4:9.5014897 5:0 6:0 7:0 8:0 9:0 10:0 11:0 12:0 13:0 14:0 15:0 16:0 17:0 18:0 19:0 20:0 21:0 22:0 23:0 24:0 25:0 26:0 27:0 28:0 29:0 30:0 31:0 32:0 33:0 34:0 35:0 36:0 37:0 38:0 39:0 40:0 41:0 42:0 43:0 44:0 45:0 46:0 47:0 48:0 49:0 50:0 51:4.0349998 52:1.7751429 53:-2.1879184 54:-0.82618364 55:0 56:0 57:0 58:0 59:0 60:0 61:0 62:0 63:0 64:0 65:0 66:0 67:0 68:0 69:0 70:0 71:0 72:0 73:0 74:0 75:0 76:0 77:0 78:0 79:0 80:0 81:0 82:0 83:0 84:0 85:0 86:0 87:0 88:0 89:0 90:0 91:0 92:0 93:0 94:0 95:0 96:0 97:0 98:0 99:0 100:0 101:8.1529999 102:11.389163 103:-2.2450408 104:19.795 105:0 106:0 107:0 108:0 109:0 110:0 111:0 112:0 113:0 114:0 115:0 116:0 117:0 118:0 119:0 120:0 121:0 122:0 123:0 124:0 125:0 126:0 127:0 128:0 129:0 130:0 131:0 132:0 133:0 134:0 135:0 136:0 137:0 138:0 139:0 140:0 141:0 142:0 143:0 144:0 145:0 146:0 147:0 148:0 149:0 150:0 151:0.36330935 152:1.5360773 153:-2.1161738 154:-2.2369261 155:0 156:0 157:0 158:0 159:0 160:0 161:0 162:0 163:0 164:0 165:0 166:0 167:0 168:0 169:0 170:0 171:0 172:0 173:0 174:0 175:0 176:0 177:0 178:0 179:0 180:0 181:0 182:0 183:0 184:0 185:0 186:0 187:0 188:0 189:0 190:0 191:0 192:0 193:0 194:0 195:0 196:0 197:0 198:0 199:0 200:0 201:-0.063282706 202:1.2127876 203:0.65584809 204:-0.055702384 205:0 206:0 207:0 208:0 209:0 210:0 211:0 212:0 213:0 214:0 215:0 216:0 217:0 218:0 219:0 220:0 221:0 222:0 223:0 224:0 225:0 226:0 227:0 228:0 229:0 230:0 231:0 232:0 233:0 234:0 235:0 236:0 237:0 238:0 239:0 240:0 241:0 242:0 243:0 244:0 245:0 246:0 247:0 248:0 249:0 250:0 251:-0.267919 252:0.72085189 253:2.9814489 254:-3.2821172 255:0 256:0 257:0 258:0 259:0 260:0 261:0 262:0 263:0 264:0 265:0 266:0 267:0 268:0 269:0 270:0 271:0 272:0 273:0 274:0 275:0 276:0 277:0 278:0 279:0 280:0 281:0 282:0 283:0 284:0 285:0 286:0 287:0 288:0 289:0 290:0 291:0 292:0 293:0 294:0 295:0 296:0 297:0 298:0 299:0 300:0 
-0 -0 -0 0 0 0 0 0 0 0 0 0 0.002377608821521112 0 0 0 0 0 0 0 0.0002873260228412347 0 0.001892061356394512 6.028526397035868e-05 0 0 0 0 2.270687460442404e-05 0.0009545988686016666 1:-0.50599998 2:-1.3351633 3:-2.0316939 4:2.044102 5:-7.4189183 6:4.8716733 7:6.8501429 8:-2.815 9:0 10:0 11:0 12:0 13:0 14:0 15:0 16:0 17:0 18:0 19:0 20:0 21:0 22:0 23:0 24:0 25:0 26:0 27:0 28:0 29:0 30:0 31:0 32:0 33:0 34:0 35:0 36:0 37:0 38:0 39:0 40:0 41:0 42:0 43:0 44:0 45:0 46:0 47:0 48:0 49:0 50:0 51:6.3660002 52:1.6566531 53:-4.9735101 54:1.8317959 55:-6.6751224 56:-2.4072858 57:-0.67738777 58:-0.89928567 59:0 60:0 61:0 62:0 63:0 64:0 65:0 66:0 67:0 68:0 69:0 70:0 71:0 72:0 73:0 74:0 75:0 76:0 77:0 78:0 79:0 80:0 81:0 82:0 83:0 84:0 85:0 86:0 87:0 88:0 89:0 90:0 91:0 92:0 93:0 94:0 95:0 96:0 97:0 98:0 99:0 100:0 101:8.2060003 102:-1.2159388 103:7.6896939 104:19.795 105:5.6592654 106:-3.9399388 107:19.795 108:5.7500001 109:0 110:0 111:0 112:0 113:0 114:0 115:0 116:0 117:0 118:0 119:0 120:0 121:0 122:0 123:0 124:0 125:0 126:0 127:0 128:0 129:0 130:0 131:0 132:0 133:0 134:0 135:0 136:0 137:0 138:0 139:0 140:0 141:0 142:0 143:0 144:0 145:0 146:0 147:0 148:0 149:0 150:0 151:0.34012789 152:0.0011772939 153:-4.1491188 154:0.68671051 155:3.4715113 156:-2.027529 157:-1.1289988 158:0.70724372 159:0 160:0 161:0 162:0 163:0 164:0 165:0 166:0 167:0 168:0 169:0 170:0 171:0 172:0 173:0 174:0 175:0 176:0 177:0 178:0 179:0 180:0 181:0 182:0 183:0 184:0 185:0 186:0 187:0 188:0 189:0 190:0 191:0 192:0 193:0 194:0 195:0 196:0 197:0 198:0 199:0 200:0 201:-0.35398349 202:0.15176158 203:-0.1867676 204:-0.093715501 205:0.59993367 206:0.83915452 207:-0.59557795 208:-0.08269575 209:0 210:0 211:0 212:0 213:0 214:0 215:0 216:0 217:0 218:0 219:0 220:0 221:0 222:0 223:0 224:0 225:0 226:0 227:0 228:0 229:0 230:0 231:0 232:0 233:0 234:0 235:0 236:0 237:0 238:0 239:0 240:0 241:0 242:0 243:0 244:0 245:0 246:0 247:0 248:0 249:0 250:0 251:0.021449506 252:-0.27135026 253:-0.055199373 254:-0.060884627 255:0.9206648 256:2.9683191 257:-3.5487663 258:-0.22543869 259:0 260:0 261:0 262:0 263:0 264:0 265:0 266:0 267:0 268:0 269:0 270:0 271:0 272:0 273:0 274:0 275:0 276:0 277:0 278:0 279:0 280:0 281:0 282:0 283:0 284:0 285:0 286:0 287:0 288:0 289:0 290:0 291:0 292:0 293:0 294:0 295:0 296:0 297:0 298:0 299:0 300:0 
-0 -0.001164381622509075 -0.001465906381527173 0.001001259121764881 6.165112102803145e-05 0 0 0.003819919630047736 0.002689595383717254 0 0 0.001264765158673893 0.002724554611395328 0.002694835797471271 0.001179972594523133 0.0008262876945897448 0 0.001373216840687034 0 0.01 0.002914162840633834 0 0 0 0.0006278571790859109 0.0002604743888731058 0.0003245176187274341 0.00286404969725531 0.001003965447092397 8.953928917598026e-05 1:-0.42699999 2:-0.82742856 3:5.1406121 4:-5.241551 5:1.1465919 6:13.394245 7:0 8:0 9:0 10:0 11:0 12:0 13:0 14:0 15:0 16:0 17:0 18:0 19:0 20:0 21:0 22:0 23:0 24:0 25:0 26:0 27:0 28:0 29:0 30:0 31:0 32:0 33:0 34:0 35:0 36:0 37:0 38:0 39:0 40:0 41:0 42:0 43:0 44:0 45:0 46:0 47:0 48:0 49:0 50:0 51:5.4060001 52:-1.3301633 53:0.081163266 54:-3.934653 55:-4.0441837 56:0.6829592 57:0 58:0 59:0 60:0 61:0 62:0 63:0 64:0 65:0 66:0 67:0 68:0 69:0 70:0 71:0 72:0 73:0 74:0 75:0 76:0 77:0 78:0 79:0 80:0 81:0 82:0 83:0 84:0 85:0 86:0 87:0 88:0 89:0 90:0 91:0 92:0 93:0 94:0 95:0 96:0 97:0 98:0 99:0 100:0 101:7.473 102:-6.1910816 103:19.795 104:15.792285 105:-8.0042042 106:19.795 107:0 108:0 109:0 110:0 111:0 112:0 113:0 114:0 115:0 116:0 117:0 118:0 119:0 120:0 121:0 122:0 123:0 124:0 125:0 126:0 127:0 128:0 129:0 130:0 131:0 132:0 133:0 134:0 135:0 136:0 137:0 138:0 139:0 140:0 141:0 142:0 143:0 144:0 145:0 146:0 147:0 148:0 149:0 150:0 151:1.6180389 152:-1.6331941 153:-3.7278178 154:3.8194478 155:-1.0481194 156:-2.3493342 157:0 158:0 159:0 160:0 161:0 162:0 163:0 164:0 165:0 166:0 167:0 168:0 169:0 170:0 171:0 172:0 173:0 174:0 175:0 176:0 177:0 178:0 179:0 180:0 181:0 182:0 183:0 184:0 185:0 186:0 187:0 188:0 189:0 190:0 191:0 192:0 193:0 194:0 195:0 196:0 197:0 198:0 199:0 200:0 201:-0.25632828 202:-0.1691735 203:-0.1026417 204:0.56156436 205:0.47836016 206:0.16689777 207:0 208:0 209:0 210:0 211:0 212:0 213:0 214:0 215:0 216:0 217:0 218:0 219:0 220:0 221:0 222:0 223:0 224:0 225:0 226:0 227:0 228:0 229:0 230:0 231:0 232:0 233:0 234:0 235:0 236:0 237:0 238:0 239:0 240:0 241:0 242:0 243:0 244:0 245:0 246:0 247:0 248:0 249:0 250:0 251:-0.02011724 252:0.0061501817 253:-0.54785561 254:0.17968482 255:2.9319538 256:-3.5014328 257:0 258:0 259:0 260:0 261:0 262:0 263:0 264:0 265:0 266:0 267:0 268:0 269:0 270:0 271:0 272:0 273:0 274:0 275:0 276:0 277:0 278:0 279:0 280:0 281:0 282:0 283:0 284:0 285:0 286:0 287:0 288:0 289:0 290:0 291:0 292:0 293:0 294:0 295:0 296:0 297:0 298:0 299:0 300:0 
-0.002292766913719682 -0.0006415448319196491 -0.001670568803796057 0.000266637000299025 0.0002457169352524746 0.001545353741925278 0.0006692832003374098 0.001298425854137531 0.002126478083838858 0.000694549802814975 0.0006985907876446483 0.0005843378423581607 0.0007449006193588168 0.001617703824772812 0.0009710467113810086 0.001729969229304579 0.001971401331754696 0.0009285016561577083 0.00153032027761504 0 0.0008493991762184107 0.003262567459572754 0 0.002006004004564053 0.001569114096229302 0.0009440789063357811 0.0007482298742554599 0.001165450839263363 0.001418165000085343 0.0003091959285048601 1:-1.464 2:-1.8989592 3:-0.69791836 4:-0.72251022 5:-3.3668367 6:-0.038224496 7:14.704388 8:-7.5267141 9:0 10:0 11:0 12:0 13:0 14:0 15:0 16:0 17:0 18:0 19:0 20:0 21:0 22:0 23:0 24:0 25:0 26:0 27:0 28:0 29:0 30:0 31:0 32:0 33:0 34:0 35:0 36:0 37:0 38:0 39:0 40:0 41:0 42:0 43:0 44:0 45:0 46:0 47:0 48:0 49:0 50:0 51:5.5009999 52:1.9661633 53:-0.91032653 54:-1.1644081 55:-4.0746937 56:-3.8677143 57:3.1378571 58:-2.2431429 59:0 60:0 61:0 62:0 63:0 64:0 65:0 66:0 67:0 68:0 69:0 70:0 71:0 72:0 73:0 74:0 75:0 76:0 77:0 78:0 79:0 80:0 81:0 82:0 83:0 84:0 85:0 86:0 87:0 88:0 89:0 90:0 91:0 92:0 93:0 94:0 95:0 96:0 97:0 98:0 99:0 100:0 101:9.0830002 102:2.426551 103:-0.67875509 104:19.795 105:17.375633 106:-5.6635713 107:18.246653 108:11.252714 109:0 110:0 111:0 112:0 113:0 114:0 115:0 116:0 117:0 118:0 119:0 120:0 121:0 122:0 123:0 124:0 125:0 126:0 127:0 128:0 129:0 130:0 131:0 132:0 133:0 134:0 135:0 136:0 137:0 138:0 139:0 140:0 141:0 142:0 143:0 144:0 145:0 146:0 147:0 148:0 149:0 150:0 151:0.4880096 152:1.4796217 153:-3.1942853 154:-2.2375814 155:3.6947965 156:-0.10249488 157:-2.5150656 158:0.6419436 159:0 160:0 161:0 162:0 163:0 164:0 165:0 166:0 167:0 168:0 169:0 170:0 171:0 172:0 173:0 174:0 175:0 176:0 177:0 178:0 179:0 180:0 181:0 182:0 183:0 184:0 185:0 186:0 187:0 188:0 189:0 190:0 191:0 192:0 193:0 194:0 195:0 196:0 197:0 198:0 199:0 200:0 201:-0.22581935 202:0.25121399 203:-0.60400116 204:0.024282603 205:0.72014496 206:0.73729046 207:0.17005715 208:0.37132199 209:0 210:0 211:0 212:0 213:0 214:0 215:0 216:0 217:0 218:0 219:0 220:0 221:0 222:0 223:0 224:0 225:0 226:0 227:0 228:0 229:0 230:0 231:0 232:0 233:0 234:0 235:0 236:0 237:0 238:0 239:0 240:0 241:0 242:0 243:0 244:0 245:0 246:0 247:0 248:0 249:0 250:0 251:0.10325073 252:-0.12317221 253:0.52445934 254:-0.35127 255:-0.076493907 256:2.9706031 257:-2.0505446 258:-0.96642688 259:0 260:0 261:0 262:0 263:0 264:0 265:0 266:0 267:0 268:0 269:0 270:0 271:0 272:0 273:0 274:0 275:0 276:0 277:0 278:0 279:0 280:0 281:0 282:0 283:0 284:0 285:0 286:0 287:0 288:0 289:0 290:0 291:0 292:0 293:0 294:0 295:0 296:0 297:0 298:0 299:0 300:0 
-0 -0 -0 0 0 0.00134784258682173 0 0 0 0 0 0 0 0 0 0.0008729014124454318 0 0 0 0.0006355296730661304 0 0 0.002704233660262277 0 0 0 0 0 0 0 1:-0.199 2:-2.7275918 3:1.4466939 4:1.5556735 5:-6.5267757 6:10.482388 7:-0.85740815 8:-1.1285715 9:0 10:0 11:0 12:0 13:0 14:0 15:0 16:0 17:0 18:0 19:0 20:0 21:0 22:0 23:0 24:0 25:0 26:0 27:0 28:0 29:0 30:0 31:0 32:0 33:0 34:0 35:0 36:0 37:0 38:0 39:0 40:0 41:0 42:0 43:0 44:0 45:0 46:0 47:0 48:0 49:0 50:0 51:5.8509998 52:-0.19777551 53:-2.9626326 54:1.3176123 55:-5.8597755 56:1.2180408 57:-2.1619183 58:-0.42642857 59:0 60:0 61:0 62:0 63:0 64:0 65:0 66:0 67:0 68:0 69:0 70:0 71:0 72:0 73:0 74:0 75:0 76:0 77:0 78:0 79:0 80:0 81:0 82:0 83:0 84:0 85:0 86:0 87:0 88:0 89:0 90:0 91:0 92:0 93:0 94:0 95:0 96:0 97:0 98:0 99:0 100:0 101:8.1280003 102:-5.2468367 103:13.580061 104:19.795 105:-1.0554082 106:3.8211225 107:19.685612 108:3.8671429 109:0 110:0 111:0 112:0 113:0 114:0 115:0 116:0 117:0 118:0 119:0 120:0 121:0 122:0 123:0 124:0 125:0 126:0 127:0 128:0 129:0 130:0 131:0 132:0 133:0 134:0 135:0 136:0 137:0 138:0 139:0 140:0 141:0 142:0 143:0 144:0 145:0 146:0 147:0 148:0 149:0 150:0 151:1.2649881 152:-0.92347618 153:-4.6665471 154:2.798621 155:1.9682676 156:-3.4126304 157:0.053905175 158:0.15225915 159:0 160:0 161:0 162:0 163:0 164:0 165:0 166:0 167:0 168:0 169:0 170:0 171:0 172:0 173:0 174:0 175:0 176:0 177:0 178:0 179:0 180:0 181:0 182:0 183:0 184:0 185:0 186:0 187:0 188:0 189:0 190:0 191:0 192:0 193:0 194:0 195:0 196:0 197:0 198:0 199:0 200:0 201:-0.44444445 202:-0.18627275 203:0.2436527 204:-0.010601043 205:0.95951812 206:0.45095895 207:-0.34787953 208:-0.055669748 209:0 210:0 211:0 212:0 213:0 214:0 215:0 216:0 217:0 218:0 219:0 220:0 221:0 222:0 223:0 224:0 225:0 226:0 227:0 228:0 229:0 230:0 231:0 232:0 233:0 234:0 235:0 236:0 237:0 238:0 239:0 240:0 241:0 242:0 243:0 244:0 245:0 246:0 247:0 248:0 249:0 250:0 251:-0.066480152 252:0.29950463 253:0.07756516 254:-0.32912718 255:1.7930091 256:1.1341512 257:-2.6159562 258:0.027501809 259:0 260:0 261:0 262:0 263:0 264:0 265:0 266:0 267:0 268:0 269:0 270:0 271:0 272:0 273:0 274:0 275:0 276:0 277:0 278:0 279:0 280:0 281:0 282:0 283:0 284:0 285:0 286:0 287:0 288:0 289:0 290:0 291:0 292:0 293:0 294:0 295:0 296:0 297:0 298:0 299:0 300:0 
-0 -0 -0 0 0 0 0 0 0 0 0 0 0 0.0007517270450694695 0 0 0 0 0 0 0 0 0 0 0 0 0 0 0 0 1:-1.085 2:-0.14877551 3:3.1234285 4:0.41210202 5:-4.2961631 6:12.592775 7:-3.7890204 8:0 9:0 10:0 11:0 12:0 13:0 14:0 15:0 16:0 17:0 18:0 19:0 20:0 21:0 22:0 23:0 24:0 25:0 26:0 27:0 28:0 29:0 30:0 31:0 32:0 33:0 34:0 35:0 36:0 37:0 38:0 39:0 40:0 41:0 42:0 43:0 44:0 45:0 46:0 47:0 48:0 49:0 50:0 51:5.283 52:0.43008165 53:-2.6831632 54:-0.32002041 55:-4.4045102 56:1.6615919 57:-2.2252856 58:0 59:0 60:0 61:0 62:0 63:0 64:0 65:0 66:0 67:0 68:0 69:0 70:0 71:0 72:0 73:0 74:0 75:0 76:0 77:0 78:0 79:0 80:0 81:0 82:0 83:0 84:0 85:0 86:0 87:0 88:0 89:0 90:0 91:0 92:0 93:0 94:0 95:0 96:0 97:0 98:0 99:0 100:0 101:6.421 102:-4.5367348 103:18.010919 104:19.795 105:-1.1499796 106:4.1193675 107:15.271102 108:0 109:0 110:0 111:0 112:0 113:0 114:0 115:0 116:0 117:0 118:0 119:0 120:0 121:0 122:0 123:0 124:0 125:0 126:0 127:0 128:0 129:0 130:0 131:0 132:0 133:0 134:0 135:0 136:0 137:0 138:0 139:0 140:0 141:0 142:0 143:0 144:0 145:0 146:0 147:0 148:0 149:0 150:0 151:1.3687717 152:-2.1053879 153:-4.3072073 154:2.9175925 155:2.0110687 156:-3.7354688 157:0.0074987632 158:0 159:0 160:0 161:0 162:0 163:0 164:0 165:0 166:0 167:0 168:0 169:0 170:0 171:0 172:0 173:0 174:0 175:0 176:0 177:0 178:0 179:0 180:0 181:0 182:0 183:0 184:0 185:0 186:0 187:0 188:0 189:0 190:0 191:0 192:0 193:0 194:0 195:0 196:0 197:0 198:0 199:0 200:0 201:-0.38702372 202:0.13898813 203:0.24259776 204:0.34989695 205:0.67010336 206:0.26662208 207:-0.046091023 208:0 209:0 210:0 211:0 212:0 213:0 214:0 215:0 216:0 217:0 218:0 219:0 220:0 221:0 222:0 223:0 224:0 225:0 226:0 227:0 228:0 229:0 230:0 231:0 232:0 233:0 234:0 235:0 236:0 237:0 238:0 239:0 240:0 241:0 242:0 243:0 244:0 245:0 246:0 247:0 248:0 249:0 250:0 251:-0.054356515 252:0.099504068 253:-0.077698381 254:-0.61683442 255:1.97724 256:0.64643254 257:-2.393424 258:0 259:0 260:0 261:0 262:0 263:0 264:0 265:0 266:0 267:0 268:0 269:0 270:0 271:0 272:0 273:0 274:0 275:0 276:0 277:0 278:0 279:0 280:0 281:0 282:0 283:0 284:0 285:0 286:0 287:0 288:0 289:0 290:0 291:0 292:0 293:0 294:0 295:0 296:0 297:0 298:0 299:0 300:0 
-0.0009092141822485891 -0.001543930769066711 -0.0001427552644502433 0 0 0.001278919713462548 0 0.001562377396201296 0.0006620271948890618 0 0 0.001975225987733304 0.0005123208386584164 0 0.004111383997186985 0 0 0 0 0.01 0.001262508070441921 0 0.00602578662472157 0 0 0 0 0.001841197070944651 0 0 1:0.34299999 2:-2.0584287 3:1.710347 4:1.9729592 5:-5.7188774 6:6.7422449 7:1.1237959 8:0 9:0 10:0 11:0 12:0 13:0 14:0 15:0 16:0 17:0 18:0 19:0 20:0 21:0 22:0 23:0 24:0 25:0 26:0 27:0 28:0 29:0 30:0 31:0 32:0 33:0 34:0 35:0 36:0 37:0 38:0 39:0 40:0 41:0 42:0 43:0 44:0 45:0 46:0 47:0 48:0 49:0 50:0 51:6.0489998 52:0.39677551 53:-3.9124897 54:2.5910204 55:-5.5892449 56:-0.47034696 57:-1.4433061 58:0 59:0 60:0 61:0 62:0 63:0 64:0 65:0 66:0 67:0 68:0 69:0 70:0 71:0 72:0 73:0 74:0 75:0 76:0 77:0 78:0 79:0 80:0 81:0 82:0 83:0 84:0 85:0 86:0 87:0 88:0 89:0 90:0 91:0 92:0 93:0 94:0 95:0 96:0 97:0 98:0 99:0 100:0 101:8.3690004 102:-4.3981838 103:15.346878 104:19.795 105:1.5791429 106:0.27185714 107:19.795 108:0 109:0 110:0 111:0 112:0 113:0 114:0 115:0 116:0 117:0 118:0 119:0 120:0 121:0 122:0 123:0 124:0 125:0 126:0 127:0 128:0 129:0 130:0 131:0 132:0 133:0 134:0 135:0 136:0 137:0 138:0 139:0 140:0 141:0 142:0 143:0 144:0 145:0 146:0 147:0 148:0 149:0 150:0 151:1.0279776 152:-0.64712585 153:-4.5528964 154:1.7867393 155:2.5534538 156:-3.0195436 157:-0.75367734 158:0 159:0 160:0 161:0 162:0 163:0 164:0 165:0 166:0 167:0 168:0 169:0 170:0 171:0 172:0 173:0 174:0 175:0 176:0 177:0 178:0 179:0 180:0 181:0 182:0 183:0 184:0 185:0 186:0 187:0 188:0 189:0 190:0 191:0 192:0 193:0 194:0 195:0 196:0 197:0 198:0 199:0 200:0 201:-0.17079669 202:-0.0088337497 203:-0.7497757 204:-0.091564842 205:1.2046907 206:0.071368758 207:0.48124767 208:0 209:0 210:0 211:0 212:0 213:0 214:0 215:0 216:0 217:0 218:0 219:0 220:0 221:0 222:0 223:0 224:0 225:0 226:0 227:0 228:0 229:0 230:0 231:0 232:0 233:0 234:0 235:0 236:0 237:0 238:0 239:0 240:0 241:0 242:0 243:0 244:0 245:0 246:0 247:0 248:0 249:0 250:0 251:0.12283506 252:0.044269346 253:0.48989382 254:-0.3525778 255:1.1725585 256:1.9989804 257:-2.8045835 258:0 259:0 260:0 261:0 262:0 263:0 264:0 265:0 266:0 267:0 268:0 269:0 270:0 271:0 272:0 273:0 274:0 275:0 276:0 277:0 278:0 279:0 280:0 281:0 282:0 283:0 284:0 285:0 286:0 287:0 288:0 289:0 290:0 291:0 292:0 293:0 294:0 295:0 296:0 297:0 298:0 299:0 300:0 
-0 -0 -0 0 0 0 0 0 0 0 0 0 0 0 0 0 0 0 0 0 0.001078665679314196 0 0 0 0 0 0 0.0002917061282791841 0 0 1:-0.032000002 2:-0.013326531 3:0.012877562 4:4.574204 5:-6.1010407 6:4.7687551 7:7.4759794 8:-3.1827144 9:0 10:0 11:0 12:0 13:0 14:0 15:0 16:0 17:0 18:0 19:0 20:0 21:0 22:0 23:0 24:0 25:0 26:0 27:0 28:0 29:0 30:0 31:0 32:0 33:0 34:0 35:0 36:0 37:0 38:0 39:0 40:0 41:0 42:0 43:0 44:0 45:0 46:0 47:0 48:0 49:0 50:0 51:5.5929999 52:1.8006326 53:-5.7934286 54:2.2717959 55:-6.5446736 56:-1.1175714 57:-1.0404286 58:-2.0261428 59:0 60:0 61:0 62:0 63:0 64:0 65:0 66:0 67:0 68:0 69:0 70:0 71:0 72:0 73:0 74:0 75:0 76:0 77:0 78:0 79:0 80:0 81:0 82:0 83:0 84:0 85:0 86:0 87:0 88:0 89:0 90:0 91:0 92:0 93:0 94:0 95:0 96:0 97:0 98:0 99:0 100:0 101:5.092 102:-4.8494897 103:12.179816 104:19.795 105:3.8379592 106:-3.7329999 107:19.758469 108:8.0385714 109:0 110:0 111:0 112:0 113:0 114:0 115:0 116:0 117:0 118:0 119:0 120:0 121:0 122:0 123:0 124:0 125:0 126:0 127:0 128:0 129:0 130:0 131:0 132:0 133:0 134:0 135:0 136:0 137:0 138:0 139:0 140:0 141:0 142:0 143:0 144:0 145:0 146:0 147:0 148:0 149:0 150:0 151:1.0083933 152:-1.4458637 153:-4.2792434 154:1.6272342 155:3.0919318 156:-2.2095739 157:-1.863274 158:0.43350082 159:0 160:0 161:0 162:0 163:0 164:0 165:0 166:0 167:0 168:0 169:0 170:0 171:0 172:0 173:0 174:0 175:0 176:0 177:0 178:0 179:0 180:0 181:0 182:0 183:0 184:0 185:0 186:0 187:0 188:0 189:0 190:0 191:0 192:0 193:0 194:0 195:0 196:0 197:0 198:0 199:0 200:0 201:-0.19038104 202:-0.10634758 203:-0.99379269 204:0.43714959 205:1.0962794 206:-0.035294211 207:0.60086079 208:0.57203762 209:0 210:0 211:0 212:0 213:0 214:0 215:0 216:0 217:0 218:0 219:0 220:0 221:0 222:0 223:0 224:0 225:0 226:0 227:0 228:0 229:0 230:0 231:0 232:0 233:0 234:0 235:0 236:0 237:0 238:0 239:0 240:0 241:0 242:0 243:0 244:0 245:0 246:0 247:0 248:0 249:0 250:0 251:-0.12256861 252:0.1351028 253:0.14701164 254:-0.43400382 255:1.0565398 256:2.2704502 257:-2.7389843 258:-0.5155114 259:0 260:0 261:0 262:0 263:0 264:0 265:0 266:0 267:0 268:0 269:0 270:0 271:0 272:0 273:0 274:0 275:0 276:0 277:0 278:0 279:0 280:0 281:0 282:0 283:0 284:0 285:0 286:0 287:0 288:0 289:0 290:0 291:0 292:0 293:0 294:0 295:0 296:0 297:0 298:0 299:0 300:0 
-0.000671096332625652 -0 -0 0.003023455539907561 0.001189275886670905 0.000231627492915502 0.0005237327898414519 0 0 0.0007111558630311696 0.0007151246416011681 0 0 0 0 0.001217654217309384 0.001459905199268521 0.0005029675025098882 0.0005199593293086726 0.002664175531510456 0 0.0002955162324767658 0.002309597245797001 0.0005993438688554293 0.00228117131867911 0.001153675638329777 0.001127362173578194 0 0.0003204371830142758 0.0004733856967592119 1:0.43700001 2:-0.47400001 3:3.0006327 4:-3.7154082 5:-1.2289796 6:14.268204 7:-6.3332247 8:0 9:0 10:0 11:0 12:0 13:0 14:0 15:0 16:0 17:0 18:0 19:0 20:0 21:0 22:0 23:0 24:0 25:0 26:0 27:0 28:0 29:0 30:0 31:0 32:0 33:0 34:0 35:0 36:0 37:0 38:0 39:0 40:0 41:0 42:0 43:0 44:0 45:0 46:0 47:0 48:0 49:0 50:0 51:3.227 52:-2.227551 53:1.800102 54:-4.9394491 55:-3.4437756 56:3.2509184 57:-2.2601224 58:0 59:0 60:0 61:0 62:0 63:0 64:0 65:0 66:0 67:0 68:0 69:0 70:0 71:0 72:0 73:0 74:0 75:0 76:0 77:0 78:0 79:0 80:0 81:0 82:0 83:0 84:0 85:0 86:0 87:0 88:0 89:0 90:0 91:0 92:0 93:0 94:0 95:0 96:0 97:0 98:0 99:0 100:0 101:0.31099999 102:2.5624287 103:19.795 104:10.703388 105:-5.1988368 106:14.005449 107:12.432225 108:0 109:0 110:0 111:0 112:0 113:0 114:0 115:0 116:0 117:0 118:0 119:0 120:0 121:0 122:0 123:0 124:0 125:0 126:0 127:0 128:0 129:0 130:0 131:0 132:0 133:0 134:0 135:0 136:0 137:0 138:0 139:0 140:0 141:0 142:0 143:0 144:0 145:0 146:0 147:0 148:0 149:0 150:0 151:0.32187584 152:-4.0968642 153:-0.50438834 154:4.0121073 155:-0.2082606 156:-3.4212221 157:0.36017989 158:0 159:0 160:0 161:0 162:0 163:0 164:0 165:0 166:0 167:0 168:0 169:0 170:0 171:0 172:0 173:0 174:0 175:0 176:0 177:0 178:0 179:0 180:0 181:0 182:0 183:0 184:0 185:0 186:0 187:0 188:0 189:0 190:0 191:0 192:0 193:0 194:0 195:0 196:0 197:0 198:0 199:0 200:0 201:0.21875833 202:-0.35301555 203:-0.19736593 204:0.39931321 205:0.64482565 206:-0.064122854 207:0.666963 208:0 209:0 210:0 211:0 212:0 213:0 214:0 215:0 216:0 217:0 218:0 219:0 220:0 221:0 222:0 223:0 224:0 225:0 226:0 227:0 228:0 229:0 230:0 231:0 232:0 233:0 234:0 235:0 236:0 237:0 238:0 239:0 240:0 241:0 242:0 243:0 244:0 245:0 246:0 247:0 248:0 249:0 250:0 251:-0.25326407 252:-0.072116458 253:-0.23743999 254:-0.032145711 255:2.8534696 256:-1.4477615 257:-1.0204 258:0 259:0 260:0 261:0 262:0 263:0 264:0 265:0 266:0 267:0 268:0 269:0 270:0 271:0 272:0 273:0 274:0 275:0 276:0 277:0 278:0 279:0 280:0 281:0 282:0 283:0 284:0 285:0 286:0 287:0 288:0 289:0 290:0 291:0 292:0 293:0 294:0 295:0 296:0 297:0 298:0 299:0 300:0 
-0 -0 -0 0 0 0 0 0 0.0004901354224143709 0 0 0 0 0 0 0 0 0 0 0 0 0 0.002818282031464869 0 0 0 0 0 0 0 1:-0.51999998 2:-1.0718571 3:0.93914283 4:1.7126122 5:-5.8977551 6:10.414837 7:-3.4086938 8:0 9:0 10:0 11:0 12:0 13:0 14:0 15:0 16:0 17:0 18:0 19:0 20:0 21:0 22:0 23:0 24:0 25:0 26:0 27:0 28:0 29:0 30:0 31:0 32:0 33:0 34:0 35:0 36:0 37:0 38:0 39:0 40:0 41:0 42:0 43:0 44:0 45:0 46:0 47:0 48:0 49:0 50:0 51:5.579 52:0.69226533 53:-3.1209388 54:1.1032653 55:-5.0405713 56:0.89559184 57:-2.2882244 58:0 59:0 60:0 61:0 62:0 63:0 64:0 65:0 66:0 67:0 68:0 69:0 70:0 71:0 72:0 73:0 74:0 75:0 76:0 77:0 78:0 79:0 80:0 81:0 82:0 83:0 84:0 85:0 86:0 87:0 88:0 89:0 90:0 91:0 92:0 93:0 94:0 95:0 96:0 97:0 98:0 99:0 100:0 101:4.9039998 102:-3.7385918 103:17.413694 104:19.795 105:0.22579593 106:2.9552244 107:17.920776 108:0 109:0 110:0 111:0 112:0 113:0 114:0 115:0 116:0 117:0 118:0 119:0 120:0 121:0 122:0 123:0 124:0 125:0 126:0 127:0 128:0 129:0 130:0 131:0 132:0 133:0 134:0 135:0 136:0 137:0 138:0 139:0 140:0 141:0 142:0 143:0 144:0 145:0 146:0 147:0 148:0 149:0 150:0 151:1.0242473 152:-1.7033149 153:-4.0926795 154:2.5486875 155:2.0530161 156:-2.978836 157:-0.57021322 158:0 159:0 160:0 161:0 162:0 163:0 164:0 165:0 166:0 167:0 168:0 169:0 170:0 171:0 172:0 173:0 174:0 175:0 176:0 177:0 178:0 179:0 180:0 181:0 182:0 183:0 184:0 185:0 186:0 187:0 188:0 189:0 190:0 191:0 192:0 193:0 194:0 195:0 196:0 197:0 198:0 199:0 200:0 201:-0.42366108 202:-0.23419903 203:-0.25906893 204:-0.057627368 205:1.0482716 206:0.086836649 207:0.63811807 208:0 209:0 210:0 211:0 212:0 213:0 214:0 215:0 216:0 217:0 218:0 219:0 220:0 221:0 222:0 223:0 224:0 225:0 226:0 227:0 228:0 229:0 230:0 231:0 232:0 233:0 234:0 235:0 236:0 237:0 238:0 239:0 240:0 241:0 242:0 243:0 244:0 245:0 246:0 247:0 248:0 249:0 250:0 251:0.02504663 252:0.040533561 253:0.084106864 254:-0.54759729 255:1.703981 256:1.2728728 257:-2.3162858 258:0 259:0 260:0 261:0 262:0 263:0 264:0 265:0 266:0 267:0 268:0 269:0 270:0 271:0 272:0 273:0 274:0 275:0 276:0 277:0 278:0 279:0 280:0 281:0 282:0 283:0 284:0 285:0 286:0 287:0 288:0 289:0 290:0 291:0 292:0 293:0 294:0 295:0 296:0 297:0 298:0 299:0 300:0 
-0 -0.001125714520654769 -0 0 0 0 0 0 0 0 0 0 0 0 0 0 0 0 0 0 0 0 0 0 0 0 0 0 0 0 1:-0.104 2:-2.8698163 3:0.23034692 4:3.9113266 5:-6.6484897 6:3.4925101 7:8.0409588 8:-3.4171428 9:0 10:0 11:0 12:0 13:0 14:0 15:0 16:0 17:0 18:0 19:0 20:0 21:0 22:0 23:0 24:0 25:0 26:0 27:0 28:0 29:0 30:0 31:0 32:0 33:0 34:0 35:0 36:0 37:0 38:0 39:0 40:0 41:0 42:0 43:0 44:0 45:0 46:0 47:0 48:0 49:0 50:0 51:5.7020001 52:0.31118367 53:-4.2283876 54:2.4411836 55:-6.5419183 56:-2.6532244 57:-1.800551 58:-2.1908572 59:0 60:0 61:0 62:0 63:0 64:0 65:0 66:0 67:0 68:0 69:0 70:0 71:0 72:0 73:0 74:0 75:0 76:0 77:0 78:0 79:0 80:0 81:0 82:0 83:0 84:0 85:0 86:0 87:0 88:0 89:0 90:0 91:0 92:0 93:0 94:0 95:0 96:0 97:0 98:0 99:0 100:0 101:7.6240001 102:-4.6708775 103:10.798877 104:19.795 105:5.6442654 106:-2.2436735 107:19.795 108:10.197572 109:0 110:0 111:0 112:0 113:0 114:0 115:0 116:0 117:0 118:0 119:0 120:0 121:0 122:0 123:0 124:0 125:0 126:0 127:0 128:0 129:0 130:0 131:0 132:0 133:0 134:0 135:0 136:0 137:0 138:0 139:0 140:0 141:0 142:0 143:0 144:0 145:0 146:0 147:0 148:0 149:0 150:0 151:1.5483613 152:-0.5296144 153:-4.9086636 154:0.97886591 155:3.2610021 156:-2.1231395 157:-1.6650217 158:0.91522974 159:0 160:0 161:0 162:0 163:0 164:0 165:0 166:0 167:0 168:0 169:0 170:0 171:0 172:0 173:0 174:0 175:0 176:0 177:0 178:0 179:0 180:0 181:0 182:0 183:0 184:0 185:0 186:0 187:0 188:0 189:0 190:0 191:0 192:0 193:0 194:0 195:0 196:0 197:0 198:0 199:0 200:0 201:-0.59712231 202:-0.44909652 203:-0.20119687 204:-0.13571455 205:0.84596538 206:0.14473592 207:0.7008597 208:0.20821438 209:0 210:0 211:0 212:0 213:0 214:0 215:0 216:0 217:0 218:0 219:0 220:0 221:0 222:0 223:0 224:0 225:0 226:0 227:0 228:0 229:0 230:0 231:0 232:0 233:0 234:0 235:0 236:0 237:0 238:0 239:0 240:0 241:0 242:0 243:0 244:0 245:0 246:0 247:0 248:0 249:0 250:0 251:-0.090860642 252:-0.14597574 253:0.11528465 254:-0.040549875 255:1.0373552 256:2.9572424 257:-2.9414782 258:-0.3304404 259:0 260:0 261:0 262:0 263:0 264:0 265:0 266:0 267:0 268:0 269:0 270:0 271:0 272:0 273:0 274:0 275:0 276:0 277:0 278:0 279:0 280:0 281:0 282:0 283:0 284:0 285:0 286:0 287:0 288:0 289:0 290:0 291:0 292:0 293:0 294:0 295:0 296:0 297:0 298:0 299:0 300:0 
-0 -0 -0 4.158416059854664e-05 0 0 0 0 0 0 0 0 0 0 0 0 0 0 0 0 0 0 0 0 0 0 0 0 0 0 1:0.51099998 2:-0.40481632 3:1.5534694 4:-2.0184082 5:-1.625347 6:12.274531 7:-0.44700001 8:-0.12428571 9:0 10:0 11:0 12:0 13:0 14:0 15:0 16:0 17:0 18:0 19:0 20:0 21:0 22:0 23:0 24:0 25:0 26:0 27:0 28:0 29:0 30:0 31:0 32:0 33:0 34:0 35:0 36:0 37:0 38:0 39:0 40:0 41:0 42:0 43:0 44:0 45:0 46:0 47:0 48:0 49:0 50:0 51:4.8179998 52:-0.10157143 53:-0.56514288 54:-1.9295103 55:-2.9423674 56:0.71791836 57:-1.2397959 58:0.14142857 59:0 60:0 61:0 62:0 63:0 64:0 65:0 66:0 67:0 68:0 69:0 70:0 71:0 72:0 73:0 74:0 75:0 76:0 77:0 78:0 79:0 80:0 81:0 82:0 83:0 84:0 85:0 86:0 87:0 88:0 89:0 90:0 91:0 92:0 93:0 94:0 95:0 96:0 97:0 98:0 99:0 100:0 101:2.9690001 102:-2.5157551 103:19.795 104:14.04649 105:-1.0711225 106:10.545122 107:14.121061 108:7.6985713 109:0 110:0 111:0 112:0 113:0 114:0 115:0 116:0 117:0 118:0 119:0 120:0 121:0 122:0 123:0 124:0 125:0 126:0 127:0 128:0 129:0 130:0 131:0 132:0 133:0 134:0 135:0 136:0 137:0 138:0 139:0 140:0 141:0 142:0 143:0 144:0 145:0 146:0 147:0 148:0 149:0 150:0 151:0.77511322 152:-2.9084896 153:-2.4193217 154:3.8305845 155:0.75537666 156:-3.714941 157:0.049544038 158:0.52044081 159:0 160:0 161:0 162:0 163:0 164:0 165:0 166:0 167:0 168:0 169:0 170:0 171:0 172:0 173:0 174:0 175:0 176:0 177:0 178:0 179:0 180:0 181:0 182:0 183:0 184:0 185:0 186:0 187:0 188:0 189:0 190:0 191:0 192:0 193:0 194:0 195:0 196:0 197:0 198:0 199:0 200:0 201:-0.25019985 202:-0.39369594 203:-0.49271873 204:-0.41067826 205:0.9596731 206:0.25757897 207:0.37601211 208:0.45297095 209:0 210:0 211:0 212:0 213:0 214:0 215:0 216:0 217:0 218:0 219:0 220:0 221:0 222:0 223:0 224:0 225:0 226:0 227:0 228:0 229:0 230:0 231:0 232:0 233:0 234:0 235:0 236:0 237:0 238:0 239:0 240:0 241:0 242:0 243:0 244:0 245:0 246:0 247:0 248:0 249:0 250:0 251:-0.17759126 252:0.22335601 253:-0.049886621 254:-0.03115059 255:2.5816163 256:0.72821198 257:-2.4490748 258:-0.30489894 259:0 260:0 261:0 262:0 263:0 264:0 265:0 266:0 267:0 268:0 269:0 270:0 271:0 272:0 273:0 274:0 275:0 276:0 277:0 278:0 279:0 280:0 281:0 282:0 283:0 284:0 285:0 286:0 287:0 288:0 289:0 290:0 291:0 292:0 293:0 294:0 295:0 296:0 297:0 298:0 299:0 300:0 
-0.001374448846881646 -0 -0 0 0 0 0 0 0 0 0 0 0 0 0 0 0 0 0 0 0 0 0 0 0 0 0 0 0 0 1:-0.22499999 2:-2.3837755 3:3.1526327 4:-0.40530612 5:-3.8756122 6:15.907021 7:-2.6420408 8:0 9:0 10:0 11:0 12:0 13:0 14:0 15:0 16:0 17:0 18:0 19:0 20:0 21:0 22:0 23:0 24:0 25:0 26:0 27:0 28:0 29:0 30:0 31:0 32:0 33:0 34:0 35:0 36:0 37:0 38:0 39:0 40:0 41:0 42:0 43:0 44:0 45:0 46:0 47:0 48:0 49:0 50:0 51:5.8610001 52:0.29330612 53:-2.8438571 54:-1.1859184 55:-4.1079388 56:1.871898 57:-2.7574287 58:0 59:0 60:0 61:0 62:0 63:0 64:0 65:0 66:0 67:0 68:0 69:0 70:0 71:0 72:0 73:0 74:0 75:0 76:0 77:0 78:0 79:0 80:0 81:0 82:0 83:0 84:0 85:0 86:0 87:0 88:0 89:0 90:0 91:0 92:0 93:0 94:0 95:0 96:0 97:0 98:0 99:0 100:0 101:6.8270001 102:-3.7183877 103:16.688612 104:19.117796 105:-1.1723265 106:7.5932244 107:16.489 108:0 109:0 110:0 111:0 112:0 113:0 114:0 115:0 116:0 117:0 118:0 119:0 120:0 121:0 122:0 123:0 124:0 125:0 126:0 127:0 128:0 129:0 130:0 131:0 132:0 133:0 134:0 135:0 136:0 137:0 138:0 139:0 140:0 141:0 142:0 143:0 144:0 145:0 146:0 147:0 148:0 149:0 150:0 151:1.0951239 152:-1.494013 153:-4.1082182 154:2.7840121 155:1.4786919 156:-3.4790264 157:0.20442149 158:0 159:0 160:0 161:0 162:0 163:0 164:0 165:0 166:0 167:0 168:0 169:0 170:0 171:0 172:0 173:0 174:0 175:0 176:0 177:0 178:0 179:0 180:0 181:0 182:0 183:0 184:0 185:0 186:0 187:0 188:0 189:0 190:0 191:0 192:0 193:0 194:0 195:0 196:0 197:0 198:0 199:0 200:0 201:-0.15374367 202:-0.28443912 203:-0.18407586 204:0.58418841 205:0.44098598 206:0.17783053 207:0.0090267921 208:0 209:0 210:0 211:0 212:0 213:0 214:0 215:0 216:0 217:0 218:0 219:0 220:0 221:0 222:0 223:0 224:0 225:0 226:0 227:0 228:0 229:0 230:0 231:0 232:0 233:0 234:0 235:0 236:0 237:0 238:0 239:0 240:0 241:0 242:0 243:0 244:0 245:0 246:0 247:0 248:0 249:0 250:0 251:0.017719159 252:0.13601908 253:-0.018148744 254:-0.57236932 255:2.5804744 256:0.29406407 257:-1.9485201 258:0 259:0 260:0 261:0 262:0 263:0 264:0 265:0 266:0 267:0 268:0 269:0 270:0 271:0 272:0 273:0 274:0 275:0 276:0 277:0 278:0 279:0 280:0 281:0 282:0 283:0 284:0 285:0 286:0 287:0 288:0 289:0 290:0 291:0 292:0 293:0 294:0 295:0 296:0 297:0 298:0 299:0 300:0 
-0 -0 -0 -0 0 0 8.212977811101175e-05 0 0 0 0 0 0 0 0 0 0 0 0 0 0 0 0 0 0 0 0 0 0 0 1:0.72100002 2:5.9928163 3:-12.283531 4:1.5818775 5:15.593633 6:-5.7638369 7:0 8:0 9:0 10:0 11:0 12:0 13:0 14:0 15:0 16:0 17:0 18:0 19:0 20:0 21:0 22:0 23:0 24:0 25:0 26:0 27:0 28:0 29:0 30:0 31:0 32:0 33:0 34:0 35:0 36:0 37:0 38:0 39:0 40:0 41:0 42:0 43:0 44:0 45:0 46:0 47:0 48:0 49:0 50:0 51:3.6159999 52:4.1529593 53:-1.5384898 54:-2.8595714 55:3.4456326 56:-1.6065103 57:0 58:0 59:0 60:0 61:0 62:0 63:0 64:0 65:0 66:0 67:0 68:0 69:0 70:0 71:0 72:0 73:0 74:0 75:0 76:0 77:0 78:0 79:0 80:0 81:0 82:0 83:0 84:0 85:0 86:0 87:0 88:0 89:0 90:0 91:0 92:0 93:0 94:0 95:0 96:0 97:0 98:0 99:0 100:0 101:5.1630001 102:13.075286 103:12.479939 104:-4.4703877 105:19.795 106:11.563572 107:0 108:0 109:0 110:0 111:0 112:0 113:0 114:0 115:0 116:0 117:0 118:0 119:0 120:0 121:0 122:0 123:0 124:0 125:0 126:0 127:0 128:0 129:0 130:0 131:0 132:0 133:0 134:0 135:0 136:0 137:0 138:0 139:0 140:0 141:0 142:0 143:0 144:0 145:0 146:0 147:0 148:0 149:0 150:0 151:0.58699709 152:-2.040819 153:2.5389946 154:-0.94333244 155:-2.2963941 156:0.85677307 157:0 158:0 159:0 160:0 161:0 162:0 163:0 164:0 165:0 166:0 167:0 168:0 169:0 170:0 171:0 172:0 173:0 174:0 175:0 176:0 177:0 178:0 179:0 180:0 181:0 182:0 183:0 184:0 185:0 186:0 187:0 188:0 189:0 190:0 191:0 192:0 193:0 194:0 195:0 196:0 197:0 198:0 199:0 200:0 201:0.083133496 202:-0.47020886 203:0.47898007 204:0.19481014 205:-0.086923655 206:0.30454548 207:0 208:0 209:0 210:0 211:0 212:0 213:0 214:0 215:0 216:0 217:0 218:0 219:0 220:0 221:0 222:0 223:0 224:0 225:0 226:0 227:0 228:0 229:0 230:0 231:0 232:0 233:0 234:0 235:0 236:0 237:0 238:0 239:0 240:0 241:0 242:0 243:0 244:0 245:0 246:0 247:0 248:0 249:0 250:0 251:0.53330666 252:-1.9262713 253:-0.076023531 254:2.8340919 255:-2.7088424 256:-0.78121451 257:0 258:0 259:0 260:0 261:0 262:0 263:0 264:0 265:0 266:0 267:0 268:0 269:0 270:0 271:0 272:0 273:0 274:0 275:0 276:0 277:0 278:0 279:0 280:0 281:0 282:0 283:0 284:0 285:0 286:0 287:0 288:0 289:0 290:0 291:0 292:0 293:0 294:0 295:0 296:0 297:0 298:0 299:0 300:0 
